/home/dengzy/AEROPlan_Dataset/DJI_0455_EER/dry_grass_128x128_1.jpg,-1.2469935967450847,1.8380013418725092,0.2321529294283183,5.245701271227092,1.4537952973584392,-0.44063855807245594,1.182998339093592,1.8678209862459887,3.9406960199909475,0.817260028380756,4.6359803611019945,3.339438745008451,3.621560017503943,0.7971857290353207,7.552088339554383,1.6850021274145413,-0.073563351244914,-6.857803920195764,1.0019365270907257,2.826049950140873,1.005929947629982,-3.706090387807289,-0.6984090217287033,-1.6384878035233776,2.168662079998295,-0.12186403771975665,3.152768984666543,0.5183165551411076,-6.6448059613044155,4.472527150177042,4.952104529343594,-2.422994818021463,2.8582070164999522,-1.4490792072160223,-1.937651307428652,1.0664838408670896,1.4536059892574724,-4.507989953709521,0.03901224599419782,-4.968326969066188,-0.4526461789966323,2.4985561793318296,2.4570282287346368,-0.02893584518678193,4.642652885736355,-2.0536608428556864,1.8474280261128206,3.029906920884643,1.9423814694481938,3.5800124650683633,-1.1160589350607002,0.7403861628391288,0.770187088520995,-2.1042789481910744,-0.5707760433503201,2.86266468105349,-2.3972506522667585,-0.4228500688570785,-1.6764476326219242,0.3225210270357612,-3.0501506591570298,2.5598644389642735,0.8093011218114782,-3.8962877911526426,2.6157277523344256,-1.0521927046596553,1.4783533569625529,0.21930136259880323,-0.29499322200177003,-0.6594281403565314,-0.10707879516028447,-1.9277998753182897,0.48012122323819784,-2.3085485496371034,-2.809045787888438,5.891148504955619,-5.092496437794404,4.558802043832638,-2.7764590458695073,0.21986597925788912,3.724282566913794,-0.1653302474744949,1.9814077889255064,-1.2604139331822926,-7.418928408938287,-2.7822169648560364,-1.1988613010404996,0.27190602573734063,-5.391898699726527,2.534548509309844,-0.6110637306565927,-0.6085476141329776,-2.215280309810609,0.16320903933302985,4.6670449593766,1.014008935421286,-2.2707744681651376,3.698818418161834,3.9659796317867033,1.4962251348437325,1.8805469827244745,-3.0610859972721265,-1.2983207396823253,3.823482572460044,-0.5279832362638575,-3.855976628111937,1.1484455589811147,4.629091082464288,0.35625341310096525,0.5401042998902021,3.5535939536937287,-3.8432798393856493,-1.1613405965611356,0.11858414745402253,4.41357713322603,3.304292792134646,0.8820652187664784,-0.7178916185910084,0.5431642046166191,-0.10986012664745586,-3.311396813952866,-2.966521983588733,-3.6130660442519678,0.9466518923310051,-0.534457516153884,-1.309148529451408,0.8663400402685546,-1.8160254835741874
/home/dengzy/AEROPlan_Dataset/DJI_0455_EER/dry_grass_128x128_2.jpg,-2.773673252731322,1.160421172994363,0.13176535190576313,4.6742082037311246,0.8773326087511645,-1.1269012077043634,2.6509485193542885,2.4639972875002245,3.5079456899325265,1.9121417914573335,4.535400788565298,3.7539457904441313,3.4488331611378653,0.04681658609626586,8.655136806758009,1.8410939089683478,-0.10665574647205914,-7.685861063889919,0.4476695196298793,1.8238995841847874,1.7981543699802667,-3.222199915988834,-0.5238804609949326,0.011357579184800116,1.6676419443934087,0.8856362275451938,3.500272128276928,1.3006448622326734,-5.286769353815144,3.7124352215013587,6.274025693130324,-3.8596759969009904,2.6071349322183686,-2.3134808657643804,-0.8016939647172864,1.8711096671296688,1.9643357719009455,-6.034573893302278,0.24328720896162662,-4.571118518123609,-0.24957425679985512,2.927871558783169,3.1895506981913146,0.06925007780209416,5.412023504839214,-2.140711960903533,2.9632569791147665,3.2516940420819522,1.7655571918728448,4.249305205392117,-0.34457703684210395,-0.6972825041332142,-0.138433221409392,-2.74386858998728,-0.7595914076138824,3.8859963975127116,-2.738275167144301,-1.1948319611495093,-1.5604867017023394,0.4202635493250314,-4.727719219598449,1.2496632840826518,1.3583408479411623,-4.153564132216213,2.0199003922716128,-0.6612678560397572,1.6770253405445206,1.1531812925256268,-1.007244854096022,-0.4935628506068964,0.11472843144333289,-1.234796660038882,-0.9606579563223352,-2.7028924386667,-1.8576855096759815,5.876990564521288,-4.324764092878427,4.72958428429646,-2.4455430861027403,0.2830485532258237,3.7633561622737575,-1.2297765234767324,2.0250792726906983,-0.9087977860501344,-8.075052872052938,-3.8225698969291875,-0.6088105452231161,0.5480800803043876,-5.425849759945504,2.9555859121487105,-1.1602213515114155,0.1518440914066039,-1.8903369708193574,1.0174376393572273,3.871387660883508,0.3086412384924393,-0.8322260277165283,3.9064350833586845,4.348142707490819,1.9035397899685456,1.7066019972015354,-2.879211590988187,-1.7780645003332096,4.508957992867271,0.9513651161758165,-2.3963170688288558,0.6979788187958393,5.715984123911278,0.1301035985359614,0.3616172325829087,4.33985384020247,-4.21088109360331,-1.6681230098521607,-1.1533439212526004,3.429835646871031,3.6118368596725388,1.5170553946239802,0.326086622388625,1.4695253636962131,-0.27673151987374317,-4.311458820761234,-2.861275419365847,-3.254325767970669,1.6385628734472064,0.43684731392223713,-1.5779969422711397,1.1273292113831637,-1.832945969602887
/home/dengzy/AEROPlan_Dataset/DJI_0455_EER/dry_grass_128x128_3.jpg,-1.5586513526589365,1.7379429090372525,-0.24297377480840637,4.721229124546778,0.685620746426137,-1.0895253146828139,1.890535125786921,2.0795954261512515,4.341018542307107,1.4729178203921298,4.799522060371024,3.1746026258833333,3.3414121094334392,-0.10986308637120532,8.269500002623833,1.9218172677189762,0.26038647146590344,-6.50692557275905,1.327592282326078,3.051445045340735,1.2931155911623047,-3.947242994704573,-0.9573311207877081,-0.7335232363842698,1.7081783969455606,0.8259390459849035,4.205609071833351,0.8511551077407375,-6.774063979650774,4.176145579104828,5.716966902182436,-2.137753727010744,2.166367184449543,-2.259268513078159,-1.6153725596494977,1.2729730234684107,1.7506038646212765,-4.92316576051827,-0.511973420234722,-4.683086082742575,-0.038632284340310206,3.0711496271488015,2.3250416716342786,0.08392603799869008,5.47989676585386,-2.044074102507666,2.2388891077793507,3.30396940349684,1.6397701967715097,3.788347319220948,-0.40467541024070053,0.315544417230321,0.08929079337456218,-2.3901685598169022,-0.3507179701579572,4.173943418634338,-2.4761188630504893,-0.2973198719460802,-2.361189135655782,-0.01543005023659359,-4.817018696795278,2.267872566025368,1.5955058457169338,-3.957453638678494,2.470485463494754,-1.4341218582300417,1.1897872048206986,0.6185997580016298,-0.511343206796856,-0.45280314397154386,1.1643507535818074,-1.0905425197349221,-0.1165518603102739,-2.8582358109127695,-2.2771371069955424,7.005120086352375,-4.718033544005241,4.264902345333745,-2.955381543124917,0.25987289203635344,3.9627475145235236,-0.4694399839398735,1.944513628277314,-1.133915901961277,-7.443997375408808,-3.4475390126470407,-0.9821620264746518,0.5278665181571719,-5.546432746984395,2.594314113622796,-0.6147036011454082,-0.2514993115786853,-2.395738251585901,0.48895227526949697,4.55971931924533,1.2203530938447567,-1.418303701599393,3.643726482674836,4.8402547225675505,1.9200330042173346,1.2179666317867688,-3.3320890448436216,-1.4357404170721484,3.954356040432743,-0.2861149987545306,-2.7756376178710025,1.7299022534780213,5.1402453407116635,0.45507442313290475,0.9798717524288726,4.551374452740319,-4.901700488376861,-1.8183888913469626,0.1550685526167901,3.8324614538638024,3.9562329488897587,1.860894849865797,-0.1827116065063361,1.7007842445320567,-0.01825977948685828,-3.4547546464706103,-2.7058313092342696,-3.854298189266708,1.3139625312475973,0.19529013787072022,-0.8561338617938435,0.37237019064725707,-1.6787336856626898
/home/dengzy/AEROPlan_Dataset/DJI_0455_EER/dry_grass_128x128_4.jpg,-1.9618996764086662,1.7259681423255437,0.39144031708225907,3.7124067994974608,-0.5562283490836744,0.17661226547214856,2.11519332642808,1.2174627901473563,4.059262965276869,0.6499555148887941,3.857820669519497,3.7789787628787708,2.3262695286620882,-0.36220746773343276,7.233757433160844,3.4553798208198763,0.02260155987694552,-6.272479253500327,0.6168206610739035,2.0964337611640134,1.7095526053518746,-3.1296751930376363,-0.13399415900554476,-1.4677220332317658,0.6020464649712607,0.3092225988888826,3.1287735960299488,1.1441283765617356,-6.474621656201525,3.204806977154697,5.202657024507387,-1.7387658553202994,1.6770303428817044,-2.195801707782727,-1.4910589383248993,1.6448563305588124,1.179569226117264,-4.032056156619242,0.0011414417178984184,-3.972713058368251,-0.5053239535148207,2.6041999739714696,3.036922173915181,0.862963043883059,4.902264721940783,-2.4434146240551904,3.24256613122187,3.5581005532042944,1.2002628408992808,4.030368215519136,0.6319244104168653,1.252585295122533,-0.30742174463676536,-1.8071835280002824,-1.0825017583496939,3.3575259908401813,-2.16812840193479,-1.569220121156175,-2.6032130706294985,1.5547968169106443,-3.6708461787281337,2.0185364922089613,0.5903935659461227,-3.909129118066496,1.9413903419947751,-1.032248969199451,1.4440126046927293,0.6702340110411633,-0.9172361174570811,0.13803316412243846,-0.08075448748909966,-1.139546849550494,0.26407616158255603,-1.5659347051285146,-2.1687155769761284,6.046071182187633,-5.259080013397054,3.996714984148121,-2.33343384400794,0.10125047240665028,3.705510958747555,-0.19297929771708988,1.4879791116316776,-1.4706269067791593,-6.743112942517408,-3.7934820446643385,-0.19401919209940632,0.07551438260284124,-6.317024188936294,1.5176489630493466,-0.33474611183390435,0.47529717117534825,-1.5611302435049637,0.7922134311396494,4.172255494240699,0.7382832862227291,-1.657241810310714,3.6034588596538057,4.427119359219905,2.3292412401392144,1.6582532249730022,-3.2081306906300298,-2.4097767091147975,2.668660999915106,-1.1235751442850785,-2.8424406533355766,0.31644613848937786,4.8740733728374686,1.2263683581873692,1.0570158194587709,4.207621091173566,-4.217954105040505,-1.5046708361280403,-0.8817047609053057,3.80193136182427,3.799897811393844,-0.2220400548408911,0.545568933505528,1.1504451257620365,0.0310433645482093,-3.5800225632882374,-2.5205571110125327,-2.906124532765736,1.4860357788713003,-0.38902631017127204,-0.471712961756413,0.42576500602109696,-1.9156079912233939
/home/dengzy/AEROPlan_Dataset/DJI_0455_EER/dry_grass_128x128_5.jpg,-3.0154238313902777,1.9672368895621382,0.29182278112490756,3.3228157816478516,-0.073333387222931,0.6288920430253542,3.8277275853077435,2.351627515680809,4.891281524310207,1.563108084681093,4.471775780182039,3.582592842929467,3.4238694329464847,-0.4995224388073539,9.756089351945219,2.0884593858501304,0.12917812825772274,-5.650844684116803,1.0769491525318968,0.8560154511824883,1.9758585224675627,-1.9840950040997996,-0.33472986978613306,-0.20335164195183317,0.6660858318058513,1.5200769958546925,3.5380874513249787,1.4806142177113875,-5.323108425378843,3.5898631747866787,6.727253273775636,-2.4990053289676903,2.448221754663381,-1.6767177847569599,-0.9520762855416972,1.8091579920924132,1.9166056276670909,-6.474696327065812,-0.13639987467096365,-3.9991519998287663,0.10438684760577503,3.6183661913486587,3.1914901239200733,0.6069317933346197,6.262190029451668,-2.2827975648622183,3.762156479865869,3.739679155164864,1.9747714422756755,4.345931274081788,0.8458340686723542,0.09956390101116959,-2.425891446551957,-1.6393816722835282,-1.0423381423294604,4.675486738092722,-3.12367241735584,-1.9021731604459737,-2.4833469253717166,0.6165690373598158,-5.232219767564045,2.118345351301941,2.3726514107938286,-3.8541303624146073,1.6991295070020904,-2.3637970086243434,1.7098508575606004,0.7754095614082284,-0.6838375703502493,0.6312884927338471,1.1945108865734164,-1.1587803179386642,0.8615016131057234,-2.4371475647848433,-1.6789175921732127,6.239722114798051,-5.13941271690013,4.653993034490324,-3.061196416974865,0.4708100779408291,3.6251241399801133,-0.9413431917096483,0.8743560927748186,-1.2801003351603262,-6.96098840688735,-4.46415629295549,-0.8243469015674171,0.4750362831392095,-6.239211581853312,1.6398403807666948,0.13865489092383748,0.7093073734119332,-2.4250605326016537,1.7032144373727955,4.495875639999356,1.7328406501263878,-0.009201534460438157,4.007632060811585,6.446336103581392,2.1344591625378255,2.278517094658568,-4.778518346357759,-2.293037434990469,4.0549098466838815,-0.07103157125968415,-2.4863822778535147,1.5599742106546737,5.801951430037992,0.6551072218033679,0.8511408355687923,5.710129143390914,-4.504182232636286,-2.470293139819387,-1.3357367297901426,2.945167915718348,4.3228973474206445,0.41293682824625294,1.050581983512574,1.6790461298806076,-0.5600217977767126,-4.640842911096125,-1.8968760390969899,-3.3978161173053514,1.368503633091282,1.148820236656611,0.03353876961044975,0.6591588695166911,-1.8259868515673336
/home/dengzy/AEROPlan_Dataset/DJI_0455_EER/dry_grass_128x128_6.jpg,-3.136277663552489,1.8551460981656,0.4147075364048848,3.8970461079468905,0.07639864457580442,0.4195798382910586,3.020353565505942,2.088889583560621,4.529621370129513,1.6122195894788138,3.8758990023772704,4.029812541100698,3.555543627768389,-0.7709536229427079,9.37391571203757,2.424558049628817,-0.3249043175397842,-6.480349157000697,0.9044745585151096,0.49265736535105986,2.1333203210440335,-2.5026853387119687,0.013837493966472547,0.13973226573639486,0.7288728841678689,1.0835286264277713,3.5101580942770396,1.3805637200718173,-5.964858244866244,3.128635853426901,6.716184902634476,-2.9711102309271524,2.6142703041736537,-1.7461272086635762,-1.400301741154314,1.719665417785866,2.2272584958037904,-6.312901754490977,-0.17905763263331445,-4.12715500402767,-0.736258008559324,3.256556843989311,3.6844934821381408,0.046034652164846944,6.157753847316881,-2.362515597577749,4.021685592762099,3.3116902073595598,1.936137029413477,4.838335767588582,-0.19363149789435327,-0.04507672433811592,-1.7963341231503658,-1.633573123042833,-0.9433041552146465,4.186908232007221,-2.6102701193574767,-2.257987825185127,-1.9367620791064237,0.7540839133343036,-4.977313371533354,1.8129177685075877,1.8299023355747628,-4.2210021609948845,1.4718289946499805,-2.2872362723226103,1.5357142342486438,0.6279191158917945,-0.5705433082952593,0.6226027918698288,0.6169009127821434,-1.710587047902403,0.3576298793279869,-2.197115282905159,-1.5786717543234334,5.559018143699076,-5.483069200813061,4.237899086266119,-3.4002606165905873,0.2384296451283406,3.7866945711426467,-0.9929614605864732,1.3208337719033367,-0.9595807932160619,-6.898078465615434,-4.539764238368118,-0.5429378253144572,0.6702402063058861,-6.498172027186581,1.8279217601192044,-0.41471951275194285,0.40812276809443293,-2.0889428345324568,1.1647315360777035,4.566107140946815,0.5317113144835417,-0.6249790312734466,4.155973788731879,5.568364496892926,2.093377025919516,2.8097527167302814,-4.414899584606659,-1.6297209728059916,4.274074006888536,-0.04383254519865915,-3.3760411725998316,1.0296019043339895,5.366465445759085,0.444774196917301,0.5053383105137057,4.4869397077208415,-3.9423692246629805,-2.1477299880048006,-1.5418745147040416,3.5927743291786998,4.558067510114368,0.31515544162564496,0.7630222747974891,1.5503217467744952,-0.5580413355287515,-4.564169638888507,-2.3530083793224374,-3.236098171839582,1.8505624618702121,0.37193102595011823,-1.13601758664751,1.426420292259556,-1.9975016354921848
/home/dengzy/AEROPlan_Dataset/DJI_0455_EER/dry_grass_128x128_7.jpg,-1.5086406646273587,1.7452401434256721,0.20859621464703498,4.561089980511365,0.5261972407115827,-0.22355464286010193,1.5789210995675866,1.1651697183798464,3.724329291636086,0.46829558687452916,3.3055370712837124,2.9347384758826687,3.4012914390682054,-0.5255247580006451,6.886622200997735,3.930935770694494,0.14003215526578158,-6.517458888807122,0.6482669324919168,2.3804938117360903,1.42247741577887,-3.2246931586835657,-0.3380369617124857,-0.6677644707645457,1.0059303925053058,-0.09317622189532207,3.7054457390829882,0.6154173993575707,-7.571522394204514,3.296250290267159,5.105426596634353,-2.0265072575821823,1.4611635760186914,-2.2661061991619715,-2.41043683518082,0.8281763808887002,1.612088510723309,-3.419251338370411,-0.323980047407362,-4.5175917543194295,-1.206533327555645,2.0953413906940086,3.452799733782181,0.14965539338438216,4.538311231081595,-1.99069802243458,2.544305752770424,2.9338604072774066,1.6146953423859176,4.487370984837941,-1.1828099351225212,1.0618022766832635,0.5345993113224539,-1.4614093113370612,-1.5057023504575913,3.3933449314484205,-1.5622406235916966,-1.0015164493829296,-2.1267418276335506,0.9849475154232408,-3.5678123497990155,2.001148205479808,0.40134691146489104,-4.481666225024113,2.5751597741281804,-1.2501202438200765,1.3139074050828048,-0.35258903186347906,-0.3477702040373144,-0.24152521415433997,-0.08841008197924048,-2.1430947165479046,-0.25616981088434293,-2.02308177091877,-2.0106563961967048,5.608356745355719,-5.080503813260297,3.1766123264709956,-3.5112311241797576,0.19059743791117212,3.52951998204085,0.19611863733511278,2.8214870846700424,-1.102946668956469,-6.2350809571759545,-2.337497062538014,-0.017056228347551487,0.49628204612820087,-6.286741509567704,2.762346219214722,-0.42630881351503724,-1.2979659288384484,-1.2526015433442013,-0.1666019030915514,4.653672235264495,0.5084284206309959,-2.7479101199411433,3.494822085715314,2.262353521129316,2.2551519048454223,1.6887151062662773,-2.7975596526884603,-1.2121087120990222,2.455225963248547,-0.9663700892506448,-3.838957708247242,0.5971444120157697,3.784051897397968,1.3777952799516764,1.1807721185418225,2.877762657640104,-3.3036878833590135,-0.48828039335804396,-0.8787080533853544,4.320279440992334,3.794078055063056,0.16650122957920419,-0.007419049114839702,1.0549286200236874,0.16364217512436388,-2.486360372731286,-2.9503217968177435,-3.2186565701434993,1.9757961084087738,-1.1251572194499115,-1.5158939786401624,1.4868531343776703,-1.6452027307056252
/home/dengzy/AEROPlan_Dataset/DJI_0455_EER/dry_grass_128x128_8.jpg,-1.1622057603876088,1.8394823726493148,0.5784219531274543,4.646439269504217,1.4092378552836968,-0.15467150817381958,1.1661844536200612,1.1537426650507028,3.8072697049770228,0.2595834814019474,3.218074071830633,2.5619991981227814,3.540257615395207,0.46832722978602764,7.060341526076591,2.950388366068881,-0.285475343449925,-6.661959815039168,0.5033235351101937,2.700197298450753,0.7146978041009866,-3.2635265517333636,-0.7282449504836418,-1.714984049796571,1.8232491843486358,-0.43526261744154954,3.3616828760840796,0.4248443328202282,-7.327362234977279,3.8607704291018528,4.810223098756807,-1.9185756360068562,2.1957093896439375,-1.657342590589763,-2.690116059125168,0.6916484145763797,1.7408610872823957,-3.35721325294793,0.1369233039962582,-5.132295056344811,-1.230038803264998,1.7969722014404232,2.974754170948811,-0.10847689613928402,4.129384619443556,-1.8548371745235812,2.2092952887721835,3.2343295803350607,2.193729433028106,4.091967098062179,-1.7817740743529247,1.3665458057638848,0.8241865701136206,-1.5599170614041467,-1.1650183156664715,2.712466108787121,-1.7574898874870377,-0.5346995459012556,-1.806277769883368,0.4221871186741195,-3.0709410643534425,2.3311222117293537,0.6918471767368789,-4.254269849631016,2.386707940991718,-1.5364205994091438,1.41193023587564,-0.5599348902714442,0.049998774278561524,-0.2911729198529572,-0.02275891958212145,-2.318633329566942,0.6905823360865412,-1.9968044477026663,-2.3702897307166904,5.298583644615164,-4.858142252510124,3.379770490508117,-3.57632060912037,0.2519951903056091,3.439424937230379,0.6755198574879239,2.358381343745735,-1.3928212999374368,-6.253981313973147,-1.9271222368695362,-0.6683523573103711,0.3923689454848315,-5.540352288636687,2.8586107948965767,-0.5645725943097692,-1.2212385413967644,-1.6085554326599887,-0.6172485628073131,4.571899083825919,0.6092056234105282,-3.1023785775085626,3.2092110915773597,2.471114874821344,1.9107432214964408,2.262627506929318,-2.8288253679489683,-1.3186509646687878,2.870630861595262,-0.6208364962082576,-4.171121317882422,0.8974929835309432,3.3719351975611813,1.0829672694042327,0.8820694007690765,2.5511619853405945,-2.918559448974051,-0.4246720157737952,-0.568632314559488,4.5543397044872895,3.606680217555806,-0.01159910179840109,-0.4849896448267602,0.49687324407505373,0.7090466643440826,-2.934875167938471,-2.595551499780121,-3.157926982221791,1.458889816147954,-1.7086526921217726,-1.6979390826485061,1.048486066657897,-1.8770998147866371
/home/dengzy/AEROPlan_Dataset/DJI_0455_EER/dry_grass_128x128_9.jpg,-2.0212444326348566,1.6498742040743948,0.10189652038863077,4.557032526569816,0.6967724431898936,-0.38083183961348105,1.743145613041547,1.6931398064547771,3.7623558883361197,0.9137558495212552,3.8772884318190344,3.964817556623408,3.3032641714894986,0.18301386989611806,7.9211766642143004,2.3726725930354307,-0.42676202469601493,-7.156899238484821,0.4852792968363196,2.53824987031152,1.3076652200640855,-3.2792604618539016,-0.9024962678100106,-1.595689891961245,2.0557674419623093,-0.2198575260401653,3.4246019732653594,0.9648128264670903,-7.055028523965426,3.9081195418549193,5.881966747116653,-2.0123238106030614,2.0187757123945578,-1.709599984085051,-2.089552959821404,1.4102123069490058,1.5932793837463515,-4.473563439549008,-0.15561997674467024,-4.599424590726956,-0.47139846070007535,2.4449125798852798,2.7807997588495987,-0.2590732762294773,5.333688834997814,-2.7981232849488995,2.9445825060245783,3.384902468595095,1.61984326556214,4.232349462762852,-0.943578590823628,1.2952972320655154,0.24279975499435444,-2.047598253364369,-0.9959883205851746,3.490631731614161,-2.129472253828615,-1.128512728158118,-2.013537461549631,1.0520867797059426,-3.8203826335833306,2.3531013996431893,0.7821198207407576,-4.313529157170491,2.078639172227739,-1.1908795313745377,0.9870485710412975,0.05245450566272901,-0.4373254340791138,-0.09914480903463337,0.21322864328260893,-1.7525242634641571,0.2710351707741761,-2.341921142678521,-2.4475203803472745,5.957729588092695,-5.031349316561602,4.0688709075170495,-3.200583541116617,0.39843320361019496,3.705188637142129,0.0020480815017742795,1.6747906900687055,-1.2864992978361958,-7.059662087838485,-3.4412717321725923,-1.0869061740831143,0.4725112214337477,-5.423421400824966,2.314670264174692,-0.7867738512252804,-0.08050688273828725,-2.14906893837764,-0.06448320866000778,4.327707089553813,0.39597534588605793,-2.1666318849962094,3.838255493879726,4.319592228817186,1.6383027691553156,2.4051311384251597,-3.695121055857103,-1.8195239347092957,3.818058751225147,-0.3782741966792046,-3.940834917630365,0.9718703947067372,4.655748454623438,0.7638514390175457,0.4068487377908152,3.472526287779046,-3.7659651231995923,-1.3794665436331013,-0.26777898020040747,4.175246354830838,3.6977876711294244,0.42801947222723224,-0.1325432497697004,0.9368128408197081,0.5822029306603197,-3.935469622292043,-2.71961515923532,-3.319607674376247,1.5842039030092405,-0.9223743869243588,-1.9951109805883565,1.092362911433417,-2.132746869503685
/home/dengzy/AEROPlan_Dataset/DJI_0455_EER/dry_grass_128x128_10.jpg,-2.1228920621057377,1.76407905169388,0.008396343264675941,4.528570783558796,0.7102940285428015,-0.5669996002975902,2.5665383765112564,1.917657137862998,4.318760894339353,1.2092213443114521,4.144455515916084,3.6948531227772703,3.354515741489376,-0.029275976877142517,8.380491388266778,2.7479896018019194,0.03851985021669929,-6.436820902392104,0.9320730430438096,2.127709722152071,1.6669730040364699,-3.569250034063591,-1.1054733913119095,-1.1424553745911343,1.3077320761943443,0.7554726107066589,3.623916088554391,1.0225308651084397,-6.860537078383023,3.925064713401526,5.9678796056505785,-1.96085037461018,1.7218563131871008,-2.120368024121677,-1.7047600363655935,1.4689746777900499,1.590771518933447,-4.857058413118797,-0.4748903172609792,-4.243254595817314,-0.6521895025936866,2.8527596772093515,2.9815885306127594,0.27060547402422575,5.655983834776659,-2.4090224499708084,3.246163833539305,3.476963581623494,1.7115928456340264,4.170920350949742,-0.5322025831689713,0.7548789582336731,-0.43786532897835384,-2.3057331258871416,-0.9380526937189545,3.9249895810309687,-2.180440470356621,-1.3519798206695648,-2.2667830009575898,0.5673836052697138,-4.912347385617754,1.8230300012205654,0.9219536287703398,-3.674025700287905,1.958083378701059,-1.6003096538438903,1.1233068707688056,0.566938059761585,-0.4522003745983403,0.09410660099086435,1.1996825471547576,-1.5673446355870737,0.47672917142664967,-2.3285220836309644,-2.1707329883811943,6.573829284302237,-5.072196225305298,4.069655200132539,-3.2468506570701208,0.33848526725710604,3.7942123825399983,-0.7112798831875311,1.5523872964226058,-1.4243826736112484,-6.879510520741169,-3.708979879922181,-0.888937163828355,0.5985491929104106,-5.888871773174565,2.107724362605199,-0.8061232757768513,-0.15028038135768412,-1.8585112659396112,0.3723875303950105,4.230102084452152,0.8393190274264791,-1.2749290671309024,3.8627722361254904,4.748687330903026,1.9777962709139996,1.8533307612818066,-3.7636779574414376,-1.4819665780265425,3.757436817086745,-0.3733975505590999,-3.292214089594387,1.388614880766073,4.875557239822479,1.0216498972150183,0.6736298553523665,3.968165803107399,-4.367540002863223,-1.576733290984628,-0.31992568845676184,3.819878713434485,4.115802754930139,0.5224896465571788,0.3388318500823805,1.4178481463409103,0.019008112729255962,-4.040993809106036,-2.5374339565880026,-3.2234883030765373,1.485810820257278,-0.38622255088620994,-1.0843821277193952,0.7259324310870687,-1.6601128467764699
/home/dengzy/AEROPlan_Dataset/DJI_0455_EER/dry_grass_128x128_11.jpg,0.11595194006754928,2.7874854830181035,-1.2243467368507974,4.380437470713149,2.4405732011336485,-0.2161255095375433,-0.674611230926376,2.0812290710089365,1.995914697869378,-0.24656849381169127,4.333564424247036,3.2163993413687386,3.536648595509978,2.640622136876556,5.537050099721907,-0.1138956510216504,-0.2616895529858019,-3.5909824269711437,-0.3161223795094112,-0.18761669036647197,-0.19800517243414112,-2.6669899627214297,2.0160235030144666,-1.2139514037892893,0.5787554790524586,-1.0558814525812603,-0.31794783385617603,0.8598785887133158,-4.007993763219492,4.504335196066586,3.285535238016972,-2.4548840683764372,3.942408025859155,-0.7214855305601487,-1.9527383719094256,1.1650511957757232,1.1427619018685489,-4.066949575607941,1.1165545981032998,-4.012728809934957,-0.842852502499345,1.9523384677342535,2.3665805339035764,-0.4380238047431516,1.8512508184096048,-1.4847758737891097,2.4676009274590074,1.4909173732684438,2.7705858279637274,1.369208955776298,-0.7701047921775466,1.4736543420166164,-0.3117485813826391,-1.2504751415758446,-0.6837277325851878,2.061835733769208,-0.7898483336727747,-0.7629243238398666,-1.0877279708540137,1.5345596258494159,1.1120514706273208,3.3930287632062557,1.9320314067234818,-3.010452696076624,2.737514784951085,-1.442229194549395,0.6718067878872512,0.5234275639941934,-1.985053484762383,-0.15106151680170044,0.20418520040761295,-2.2227631870248628,0.8545090333883365,-0.9506466106890429,-1.8209124865206996,3.3615383449159473,-4.065958315856627,5.103011312302923,-0.1217696675466036,0.0613155744504541,1.6318144376934485,-0.14659238825763113,1.4408320790721327,-1.3456892539571332,-5.286405756966888,-1.3482518646284478,-2.215009293536978,0.4617945127769194,-3.8546318477150203,0.2313166706365854,0.8442746493334428,-0.7735731270432575,-2.789897006845295,1.3751172729916958,5.819068806574288,1.9846059719677762,-2.400719055391351,3.6790272730147464,4.638670046756415,2.024939442813281,2.1810534799548993,-1.9715850146355074,-0.3494162332470129,3.955743547799883,-0.8235508038310598,-3.361977586320797,1.0744783838926266,4.00486593235568,-0.33949463761197884,1.4987879143649678,3.2917187865615674,-2.9160685330294287,-2.1419828133165497,-0.19865424817640204,3.273644655136512,2.1102643063619495,-1.7798290433347437,-1.34259174675067,-1.0860268152678585,-0.2706829452006252,-2.4739561642882246,-1.4379105548003956,-3.1673663682238637,-0.4112362484533989,-0.33377328870246453,-1.6404155845743478,0.48843461718520575,-2.6785982162905384
/home/dengzy/AEROPlan_Dataset/DJI_0455_EER/dry_grass_128x128_12.jpg,-0.7405307184069098,2.546021114243767,-0.8426430596272807,4.654362080471363,2.089526647165903,0.14202640511013426,0.28419831685812363,1.8336415520363585,2.735776482295744,0.004981913624193551,4.400990786375118,3.3168388961386492,3.6322875630785454,1.8895370976727683,6.702839315007265,0.17508753539999797,-0.14677046136071356,-4.920009418439373,-0.13695677732812203,0.7630468274499165,0.4894566142095479,-2.7693504281417325,1.4285054280432383,-1.3341777018381178,0.7173645204438038,-1.307719538250934,0.6104289101532481,0.8994123034465389,-4.619098204721343,4.154072661380301,3.7785740941637718,-2.6378353493658517,4.162933641185591,-0.6842623106399106,-1.8878714753557255,1.5049673870368583,0.9831730807665238,-4.864126716460938,1.078558966552992,-4.263950682239708,-0.5065162979327907,2.430299367065877,2.3318779055928345,-0.3057295402835425,3.1045321482407613,-1.9638535676077709,2.455528059991295,2.0647110666859816,2.5682036520724,2.337686856513794,-0.7370542552726385,1.4036562729341435,-0.3420537787182286,-0.9937672385903354,-0.6959699537488511,2.4097039022275144,-1.360826048100157,-0.9612693110811078,-1.6141921658360665,1.3840998269383722,-0.19337916361393578,3.723609251576845,1.3679135260270783,-3.6821672683297058,2.6325859215016716,-1.0716692898019087,1.443615042833199,0.43499207492219255,-1.2917858057053866,-0.013421104017343408,-0.5767635574514275,-2.4181824588145666,0.9573378665595875,-1.5223239856513022,-2.304656158487394,3.948147609481348,-4.932626884894065,5.09303087745876,-0.7635236257479504,0.017367250097041317,2.4641501568539352,-0.35681121753558187,1.4808706428000202,-1.3056615972988606,-6.5087771377338015,-2.039239072847067,-1.739699306348443,0.09286107337856524,-4.689486880293004,0.6363706852185801,1.0185486660670127,-0.36618170792355426,-2.8478981965007475,1.056538597937506,5.382350211714966,1.5210978013814298,-2.3477911444141206,3.894614241539813,5.1773936720961355,1.8237521283498086,2.4330354371040266,-2.607692462998034,-0.6731360891174684,4.167516434891181,-0.7232987706944128,-3.925087938908365,0.7197419668684197,4.922104904988496,0.20826059205463077,1.0736830419886811,3.746329099400677,-3.4769832820024478,-1.8043544682345973,-0.02358778736539352,3.3934550301413973,2.5460026065950885,-1.2862178358279048,-1.108313702751657,-0.5594579636651221,-0.33809979946271185,-3.177102236889856,-2.111265408531226,-3.4983822924889956,-0.055666751032355265,-0.3063343550729393,-1.5106699343700931,0.7967244936459401,-2.7318402168405607
/home/dengzy/AEROPlan_Dataset/DJI_0455_EER/dry_grass_128x128_13.jpg,-1.5870409266509395,2.1737780391641417,-0.3073927612958298,4.294965250804187,0.7561023580048559,0.6837785286818556,1.6735643898303472,2.3306635283232273,4.178508435858708,0.21479604690132786,4.39825030149034,3.4351556155336107,3.4340449886520537,0.6633234345213893,7.877822284636312,-0.7145838282732578,0.30782211425521755,-5.19709849855553,1.2363635349389321,-0.020516580995151242,0.28260965202431987,-2.5373639207985983,0.422954122981821,-1.2114164001934997,1.515754984672467,-0.8873723466311743,2.442298248950274,0.7811544511031276,-3.741212633662485,2.5460126032908925,3.929342715816714,-2.6688459262353637,3.843844064552974,-0.6553355129997683,-0.50801431185508,1.6179802515901778,1.3902206363267575,-6.3781013014660255,0.5174164404791851,-5.5719422847559645,0.5231150315079577,1.839715691387121,2.068526428468557,0.6503335302081477,4.603163607697367,-2.5106497808510837,3.605381148103936,2.499855053147727,1.44115344888104,2.2983664845656486,-0.789060659030761,1.4358771851833936,0.029715629429341063,-0.44336706140321647,0.4467106502077355,3.2912647501796557,-2.345863353825435,-1.5834346920787892,-0.7034315747273665,0.44278120688666556,-2.572090521558372,2.6044063894081044,1.338764141973466,-3.0787794145290968,2.3060776902044964,-1.1239425187930543,1.9579843705658178,1.4090264077564658,-0.8304639318722268,1.3311759442593256,-0.11805000355928912,-1.5539005104930639,1.6709048122835515,-2.7534336990991894,-2.4814184725567894,3.716562204972412,-4.620311498702921,3.6936195782125276,-1.687367273488822,0.6295112351942811,2.9472976866543474,-0.9600291041539528,1.282073445251757,-0.4654681575197497,-6.674971256379971,-3.704864894608459,-0.8080429724926512,-0.9632144521977756,-5.904111520700381,0.6845003097611642,0.8452672014090877,1.0724665742638515,-1.7467715331134346,1.51805083642711,5.094653518731862,1.2769689142462561,-0.4890630527155265,3.3934239944982103,5.760188659934831,1.3040533750236036,2.46632591711233,-4.751553789678741,-2.637983717292533,3.8748973111565865,-0.9024998315220957,-4.640345991478361,1.628192776717512,5.621558069283106,-0.3582614612114951,0.8677175280433413,4.045636594764781,-4.363611942337119,-1.141782949597046,0.2654888508824019,2.724668408183314,3.9265076944530706,-1.3574360517528854,-0.42620496712304246,0.9605038279563555,-0.9019102342666333,-3.247039016018347,-1.2869649218802544,-2.8698505140499413,0.5831507621684917,0.17961801259814486,-0.9852398087199091,0.21719254791061143,-1.4996656652923492
/home/dengzy/AEROPlan_Dataset/DJI_0455_EER/dry_grass_128x128_14.jpg,-1.9274699221165672,2.285739236576453,-0.11409028876130238,4.264134639136289,1.6823071951252513,0.840464688321835,1.390847773596909,2.857831911191371,3.4861501668418016,-0.5658719008743719,4.2670430925201455,4.0266375944016914,3.383079384348087,2.0110169749981175,7.84877841699483,0.2137636025646071,-0.15184605181403843,-4.9511414738222825,0.5161009748074795,-0.016046364818642966,0.5968797976094289,-2.804510745505684,0.43517189718606064,-1.4826723146437613,1.1091504451725611,-0.6846305244509656,1.2355406272615803,0.4123164904187919,-4.447972961744179,3.670311163601801,4.564936598118098,-1.302119755584654,3.5644836005073772,-0.9531376839322258,-1.102961281988398,2.2395316943951924,1.4924270178369587,-5.663178125583505,0.9779077545217063,-5.4899313081081775,0.7707782215687697,2.2020120787065496,2.6769706532908772,0.4512430445163461,3.9671160342685363,-2.700499958417696,3.6675388955782333,2.8408296092115095,1.8449723238938407,2.021977517415876,-0.42615521416544827,1.4724517000312032,-0.7852680387627511,-1.2142187191593883,-0.46140172651130945,3.182085098275775,-1.9645826018233046,-1.9542790768338727,-0.7501057042913274,1.416606689411077,-1.1736086897773568,2.886391017359253,1.2509648276792693,-2.885743376223398,2.3583386035352034,-2.0902489959838,1.7453511570696112,1.0327284961190188,-1.3915937855950855,0.4567608232020441,0.13015126174707115,-1.4931593807913042,1.0982317214860662,-2.0503381330186294,-3.019570533536559,4.1577535216975345,-4.292949364077748,4.669062413467192,-1.740601914027349,0.6114483988770395,2.2725262009550167,-0.5828546289449392,1.0619927429412788,-1.0539926513758,-6.572923837872267,-3.259416217413096,-1.49539594189749,-0.5988598058950028,-4.76816433763833,0.16726917303819366,0.8006984897445543,0.18584531534118978,-2.338385198177462,1.1232434948076082,5.233895201218957,2.1254898000887246,-1.2396688745761815,3.9293090697310773,6.3962495644905255,1.6707812196868037,2.387372936563588,-4.422114678533005,-1.9774292319782756,3.6859834348025786,-0.7621298731072654,-4.369021930428635,2.074357166158598,5.193617562984259,-0.318151355768759,0.913701215180685,4.431663415738858,-4.028520981258707,-1.2317864152652072,0.1292012982655768,2.976042048073374,2.8666952239464307,-1.4772674114382074,-0.42441112150280913,0.31529564935973275,0.014318419341600382,-3.7116603538131328,-1.5441768907563316,-2.581194872654495,0.6404894279567956,-0.39368579745452603,-1.416881367223565,-0.1004285631976746,-2.0706021079868426
/home/dengzy/AEROPlan_Dataset/DJI_0455_EER/dry_grass_128x128_15.jpg,-1.28624236056731,2.164108016713489,-0.18600294070407264,4.473834323495342,1.6193384849270651,0.9235148887940493,1.0172241666301383,3.0171570933564764,3.398288029084399,-0.19301300035475638,4.524700204305517,3.8850661003283804,3.491932210293237,1.3046970712387707,7.523235009339518,-1.0005020591464342,0.035774651704754155,-5.006029779439482,0.26042828007401164,-0.5298542797015926,0.5041410829199828,-2.1724017264968962,1.1146358393150089,-0.6806751494805161,0.865815383902007,-0.8540228176202384,1.3125112028995574,0.9100368793700786,-4.002149737399167,3.499718022717353,4.231211684210199,-2.162538195457313,4.501553607190701,-0.39493223986572046,-1.2432641042495143,2.1629282164657933,1.5370280061837653,-6.059783217503818,1.4382058999986833,-5.134066692968592,0.5841614574853731,2.5453362559073787,2.744145391763816,0.05675762280094994,3.803260640488632,-2.4137693514785874,3.2591208510427316,2.1826992843069806,2.0987103073530062,2.066303023558062,-0.9380285292066862,0.9665949254436941,-0.8830662347970266,-0.7242711927447564,-0.09536277617086598,2.7860072744119257,-1.9849850339293638,-1.6778514792006392,-1.0346101912734338,1.0751799032890528,-0.8040358403019081,3.2496479752251117,1.3171953669180234,-3.2748044733194597,2.614650607675304,-1.913675108518495,1.9118982609496746,0.8594379623029684,-1.8961598711560719,0.889749231013873,-0.3609150364771036,-2.1291776081666787,1.2771109369591496,-2.2629837309399656,-2.4276443230393605,3.4566083545518524,-4.92045583876174,4.500735472441436,-0.902037895535579,0.3465593300887703,2.486430220824437,-0.6162514908392895,1.3266879317617661,-0.5177017825604746,-6.5831428379366885,-3.315770771650933,-1.92018069335079,-0.4955281986494822,-4.854697935044015,0.26601263295840294,1.4726921934852508,0.5548354387697751,-3.1575753884400823,1.6476880358428303,5.6876032433581205,1.663840130293091,-1.0535135360900099,3.9757641753802146,6.099215573642862,1.8059981826170604,2.7622222986898177,-4.186714570595649,-1.8961343751757034,4.42096313781969,-0.8065486322517328,-4.597980027334467,1.2110912227954744,5.431785342953818,-0.6487035716187617,1.3014908381612533,4.222749707738126,-4.050442776362895,-1.905978637352641,0.017514159791389705,3.0015333538693794,2.8911049906941053,-1.438067992971163,-0.6008781346914875,0.43172511688964993,-1.108367781688942,-3.2869514437418808,-1.7525974413571892,-3.1598025294966314,0.5706822148022952,0.5524219158997602,-1.4990542278105385,0.5044165233949223,-2.2638887436503983
/home/dengzy/AEROPlan_Dataset/DJI_0455_EER/dry_grass_128x128_16.jpg,-2.456074630690868,1.8858925829929383,-0.25259126791902753,3.7121199410573014,0.7327839741902361,0.6567810501359447,1.2847795103062172,2.129623868700991,3.7601165623123918,0.5131803248712489,4.432609316716912,4.58264254377246,2.7334792228633624,1.0112503503431012,7.659938697264579,1.4653898178043785,0.02764396266781709,-5.4678141988591,0.3242893474430959,0.2149766386972277,1.3187994849274116,-2.6453294195842227,0.17983605930403215,-1.171525832872406,0.7633441788679309,-0.15684744715834162,1.7994892420622353,0.8557043845449392,-4.998318653136396,3.708248135020502,4.7433195762439855,-2.350252467872145,3.07711002467697,-1.5024309457081864,-1.1345226698958566,2.232862331979898,1.196667378473813,-5.176447606103135,0.701935950036344,-4.431368298563685,-0.37773256229736124,1.9728963187696167,3.108405551180877,0.5764628686240358,4.128816556214813,-2.4734288978215373,3.989045094453477,3.2189308829983796,1.3744224854773865,2.780799740894361,-0.321473857950605,1.3527166377401638,-1.4556823892168187,-1.3610684091970178,-0.8994610824333185,3.127776850059667,-2.0113545045721226,-2.129513061527989,-1.3588381498628783,1.4142738099117742,-1.9596830698882843,2.8247091611129407,0.838460614014165,-3.210386561566481,2.1462355635540264,-1.1785266287293057,1.708063873821781,0.3356590083528777,-1.731244090716379,0.6323699070357873,-0.4146815679167927,-1.551605789614383,0.6120664872810395,-1.6167778301209128,-2.465560354270258,4.660441590905596,-4.931122965615438,4.237576975456766,-1.7274047359800833,0.22738163718225607,2.544512294424397,-0.8508296692037985,1.1243807153694776,-1.104254266605294,-6.32938180471024,-3.4228754690528183,-1.363902265168623,0.23169693364510313,-5.566867585604671,0.548230566238922,0.4954438531026625,0.3752600403249834,-2.0854117091098714,0.7016420139998903,5.020596443658511,1.1947920523805398,-1.460446399674065,3.601084297716523,5.351298599536727,2.0798735717046255,2.455512028666451,-4.239484121536364,-1.888061936645655,3.614908910370238,-0.9781033276360551,-3.6772955282497732,0.5523323765335101,5.332433461437776,0.4640609350718757,1.4668591484572464,4.003081922671269,-4.352295001362344,-1.7301951212771514,-0.6284018896900319,3.584467806674681,3.656811397164361,-1.5487402813532554,0.33573886745266973,0.5021566827666633,-0.6764728368644279,-3.7666090755676884,-2.0116885868022427,-3.279807374712289,0.75429223241851,-0.5740364519248827,-0.9753184548087376,0.8274002516728203,-2.480949031976056
/home/dengzy/AEROPlan_Dataset/DJI_0455_EER/dry_grass_128x128_17.jpg,-1.7524134652993404,1.8155075249951846,0.1521373034163151,3.7834175809913773,1.438431812564875,-0.05318575147766462,0.1828398955487455,1.6295495161400813,3.8042238543673212,0.14283258533911125,3.121068660738172,3.7747369990852624,2.187622381168048,1.0071511362351542,6.203325694206105,1.8834599768942564,-0.4621169633701455,-5.268356498048638,0.23615051494675088,1.4246658485010855,0.7222327212417677,-2.5477921566135566,-0.2857414013115444,-2.128392718706613,1.4467411428428154,-1.1657266407063585,1.8003010408406113,-0.4905309632864759,-5.90290078070351,3.22221325030481,3.3959088921101475,-1.3231596377519537,2.159229024066586,-2.126070131109897,-1.2568059926103925,1.475997245263658,1.4362568043626875,-3.2425347999789884,0.8311437792348381,-5.07578189149523,-0.6624387226316668,1.5430661094896445,3.2244619255012013,0.4653476865327823,2.7085789381393406,-2.1353377673826133,3.256407618803243,2.5549432696289998,0.38944643920141053,2.926485640997644,-0.9905358358881697,1.8496838574493097,-0.049880202695784366,-0.9091891973471201,-0.7868862362251734,2.274466647466615,-1.3664611466670855,-1.62167077954888,-0.7462093340074575,1.4345997002683897,-1.2010893360372425,2.0854270267450548,-0.4093812938602806,-3.4125315577886743,1.960008343487391,-1.0740640871463423,1.5668695177313805,0.4832183964561131,-1.3612289232479227,1.4898595961994952,-0.7554275312008341,-2.4483038202503495,0.7301880336665125,-1.5722769318903886,-2.559475639212864,4.085120914238602,-4.159447170114886,3.4794068028225262,-2.090897165543997,0.1383262468347601,2.5010881653716512,0.4761648038076773,2.1072408739839354,-1.2888569308592708,-5.978090865376828,-2.5156477910318826,-0.8682574674619634,-0.4218397815783016,-5.278507753691374,1.1609534132358479,0.3724879109005422,-0.5132970973532519,-1.6976015097218273,0.23802002695956212,4.66684843227849,0.753720807697122,-1.9439933170531607,2.929463686998177,3.0889678173253063,1.9820889084650943,2.064865791443245,-3.5738841515592163,-1.5128490307111742,2.0806039005136023,-0.9875789608948524,-4.318954207910672,0.5480914467129565,4.607726083926276,0.6145169867947369,1.7703593099235833,2.6121192883677318,-3.865426070739568,-0.6859765906819156,0.287755844736474,4.1801516349024075,3.260792324051683,-1.8516775962282614,0.29609719292160785,0.1946211723546077,-0.30770349151784937,-2.7070100643583546,-1.4867792246343297,-2.6922415139020286,1.2968670144687855,-1.8266525037080505,-1.645389178903151,0.6768408160259313,-2.1522932171114633
/home/dengzy/AEROPlan_Dataset/DJI_0455_EER/dry_grass_128x128_18.jpg,-1.3906755341865975,1.9656372451379316,-0.08572587110223126,3.4944674511953258,1.300635367393872,0.0488569596228665,0.8046213922136257,0.6605969672687417,2.9237322331494964,-0.026683408469724935,2.3076054947575955,2.478959858659557,2.5022140395852395,0.39303280395584406,5.38482923981221,2.7527928576404066,-0.23890196979344142,-5.4369829800984855,-0.3336765252824643,1.5916604380707544,0.7762141094311147,-2.3423186926826767,0.3692448140322605,-1.8632860834218863,0.8433578904044007,-1.5358187536062518,1.776747074968322,0.0451713475374876,-6.1873075150388495,3.0573415300603233,3.5329882665353196,-1.8128866130242176,2.2805469283185813,-2.1318984214641867,-2.095444805623816,1.3412913613208326,1.2933332004817508,-2.6215682443015362,0.636572450452696,-4.367368858888053,-1.26267737703613,2.0710955812423553,2.9916071822073382,0.28203259386364243,2.5749763545772586,-1.9064436796153168,2.924372635693406,2.2566725918700223,1.4467526067150884,3.390795665282968,-0.5306317183910048,1.7372357107464456,0.42192575834062185,-0.43663752241582693,-1.7093974075705685,2.2536955599967365,-0.7446259532489284,-1.1787347711895995,-2.1662982938727597,2.080701011120232,-1.1007239150257673,2.1887361452161676,0.19786440341876158,-4.099351320384665,1.9479993257891746,-0.8577663041160942,1.4555937371173235,0.11363349214061055,-1.3432379598311384,0.5724494858113126,-1.3931247718714412,-2.641518126676222,-0.09254011758494142,-1.2537242296972235,-1.9272041049734228,3.7889594994106943,-4.417744856466384,3.657748616647627,-1.9512835909787387,-0.3524796961728052,2.370996727087081,0.9136960940647025,3.018018833114785,-1.481064216766096,-5.591309795870868,-1.9079138410551046,-0.38295706934750423,-0.012569345593045757,-5.393066136980575,2.1874172619563192,0.8605890092325765,-1.0375342718083218,-1.5100048145138436,0.0912497231612626,4.323510207231801,0.4870909727829729,-3.2682008414542154,2.630885936725238,1.934344745089723,1.8988217044846316,2.2576502273069954,-2.140911006458212,-1.37751777199087,1.5783995987927502,-0.8273707575927955,-3.512652270692432,-0.08006612899425444,3.9243275820027597,1.4119405180330387,1.4170393739627383,2.6514199892168966,-2.6966339907120833,-0.4828741864004735,-0.8777198831438062,3.9568226707078287,3.042248277090892,-0.9908455278635764,-0.15409274969915368,-0.3457075720753202,0.37653138415211834,-1.963964060238137,-1.9858952349630943,-2.811719760543767,1.2292976178021513,-1.5510041204193485,-2.068503869540508,1.4353474796987244,-2.203108522369802
/home/dengzy/AEROPlan_Dataset/DJI_0455_EER/dry_grass_128x128_19.jpg,-1.5935823763782087,1.9180436836929151,-0.09657733293979609,4.374707125917697,0.4279776741402334,-0.35139726221119155,1.6243195226948888,1.5176450238440182,3.6962974862809572,0.22754075851739225,4.000636805045094,3.8016743619417936,3.0246038694043094,0.5156322699506382,7.013485069882668,2.338266575709775,-0.03871289610046056,-6.521192032633941,0.2530889902932253,1.949848226224886,0.8757722078250867,-2.952754436813639,0.01771661220671672,-1.4865624255756,1.7744878771988397,-0.7299798390577472,2.8401358523337654,0.8321668395436198,-6.750833120190444,3.427742424528477,5.145443542937439,-2.1359461815272467,2.276971305509758,-1.7481182299809057,-1.861915211220552,1.482575284138431,1.546303093227333,-4.114629191116203,-0.09765696247030911,-4.470931266349347,-0.3279558471277082,2.4916425538515536,2.8679645688287314,0.44955358545409085,4.190668418012968,-2.977529593241546,3.1906887993845094,3.126001324941147,1.213089478617755,3.77131779746802,-0.6401818091472352,1.60054786369686,-0.02981616560091253,-1.5879064223421602,-0.8914263679328946,3.260134871316145,-1.7455116705436684,-1.5694407302276319,-2.1635697144596704,1.986656508693012,-3.0084044296381958,2.7062355534642855,0.7830465430862653,-4.3679768429678045,1.9143758226955572,-0.8206700144465273,0.7876855364751496,0.37232255894996824,-1.2017886805769122,0.5934667149890804,-0.4190730823084395,-1.7475104135021433,0.21070141711175153,-2.1683317478385886,-2.284851889418019,5.171548516392646,-4.664644924805191,4.004063426645458,-2.4851091164117256,0.18433269102825123,3.0048063529901423,-0.03923596709412719,2.147304237198899,-1.1650473993963752,-6.834577513375225,-3.398318953465664,-0.8327263542590627,-0.34498287841207903,-5.642232006880609,2.1270470647358137,-0.09783219044521409,-0.1157169383756588,-2.22588949771814,0.6996546696652622,4.588012895575452,0.6202671484358632,-2.1832350052290628,3.9966498089958966,3.805557040061121,1.8067137099198731,1.951904741599262,-3.244307858621623,-1.9616158829651493,3.0079599296415696,-0.7407646897100795,-3.7965405899189144,0.706474190971956,4.782693478645811,0.9296963921505093,0.6722971722104454,3.68716842879875,-3.9073520563970106,-1.3650947989890585,-0.6721527960701026,3.9765057051735377,3.3034757079635577,-0.6298609830106067,0.014264456507346224,1.015921313728251,0.7153966391640327,-3.2631475365187335,-2.179163651072829,-2.750887280831752,1.5375018690819477,-0.9088033050014215,-1.917352508490111,1.1667104177054848,-2.201235384939231
/home/dengzy/AEROPlan_Dataset/DJI_0455_EER/dry_grass_128x128_20.jpg,-1.361719832695306,2.2691810691600307,0.26933636950072093,4.054753890708928,0.04740565299785658,0.2805459979732917,0.8490367522234014,0.8195593197527866,3.810555056406849,0.7175766493700132,4.042292193204428,3.5859262848617908,2.659749461622803,0.042718014249930714,6.8454359598789605,2.9158324756549385,-0.08870833070888284,-5.942884884234334,0.6070489153253551,1.6697938102274787,1.4987920834350676,-2.874978906507166,0.6649592372515539,-1.0100209264802504,0.9421662699235428,0.1522611366071963,2.698877568881408,0.8598287521134612,-6.467767483012567,4.156688862667458,4.698099255836828,-2.1996938460988114,2.4126811688078265,-1.8029463004060873,-2.3160792084982202,1.274839220228112,1.424156077076776,-3.718953631101185,-0.10819045783964046,-3.1613256714019875,-1.0362045825438675,2.9750228772905967,2.6599970743720505,-0.03513760227520061,4.0159080557188584,-2.402889526652563,2.595184236097999,2.6244544107425725,1.767359966536604,4.252602431419012,-0.5730651914519868,1.0034161345393446,-0.39415447890659927,-1.228161993922214,-0.8358794003284646,2.6313064313128236,-1.6729487133154968,-1.332415842567245,-2.2743461940111755,1.6756762824039306,-2.626545006884177,3.121762735293772,1.339904874338121,-4.693348175826441,2.1460076451034453,-1.4311236682688802,1.608310535875819,-0.014671507396633338,-1.0425460321557454,0.055413318672629205,-0.7637809533272284,-2.2445006220571537,-0.14507435000317734,-1.3458599833938483,-2.116886981130606,5.393640966904188,-5.867199193854499,4.094350392654622,-2.0413293392351424,-0.6242766215072917,3.5598826832219053,-0.04586238147679782,1.925322552377363,-1.3562258272050767,-6.51573394070481,-2.3610345516818847,-0.4681327435198705,0.7335017532666673,-5.8842432464438,1.5150177624702885,0.49687178728998405,-0.7395159597209183,-2.351719359064014,0.7309132917455579,4.8314788881527395,1.0311453272250246,-2.5611584127821856,3.569114255502786,4.007954203417069,2.1604964444302355,2.130159717157852,-2.8710806934663884,-1.4317306255716595,2.95413368946964,-0.7927211951804212,-3.530083034857823,-0.04921833197746458,4.542542981605507,0.9284285406972261,0.8197010986865809,4.1659846411266335,-3.6643826660024374,-2.217236809571502,-1.5282805712488785,4.044976147713888,3.2467954429837063,0.036366950666879026,-0.07784803197996551,0.07371830113882591,-0.5873013496632169,-2.9655864500090443,-3.129150036111202,-3.9159711695609376,0.9781708532644877,-0.43808334792583825,-0.8589844714214812,1.682018068922083,-2.264776649151473
/home/dengzy/AEROPlan_Dataset/DJI_0455_EER/fresh_grass_128x128_1.jpg,-2.3250935167962257,1.466996579563284,1.6619507648421088,2.4389495062280395,4.01918130941129,-0.5484870584621555,1.214383053740978,2.891327045321455,2.458274970232836,-1.439408723234486,2.7344918468779915,1.7339743371436327,1.9823384987259804,2.2601459407450295,5.4056402451976915,-1.6676490920704974,-2.5437875369536083,-4.654116718125556,-1.0124500121547253,-2.5147880010164294,0.6447121090306729,-2.1169965146038634,1.0668124231575289,0.57661873843843,1.303581277857331,0.7226647190061743,0.21024005627762438,2.041480136144634,-1.6804380557071006,1.8859677005622082,4.686706335251584,-0.9094796176460571,3.92718288371879,-2.603818784355142,2.209140721417035,0.0006490342532552825,4.305727279931828,-5.985016883844116,2.2660824980016256,-6.457898396000971,2.8910244238972735,2.7200330183044388,1.5595799394515553,2.407378201826087,-0.4040698035527074,-0.4643979934331357,4.396065978852581,0.9801888452917675,1.147719325581766,1.7770085183784161,1.414134377407279,0.21208275857555353,0.19444900903137619,-0.6197347483655797,-0.7210793048859488,2.1381545862067917,-1.3426584818144225,-2.566964187857819,2.2859935547198256,1.383378295100608,2.4817862750144895,0.07023642328118929,2.250881081639823,-1.8386284469318106,2.4015239520739358,-4.168564433185529,1.8155887312851722,2.7802984088257965,-2.746069550527395,1.1121819501588033,-0.5171706728058888,-0.2316185826947023,0.18978883358384785,-1.655778451010232,-2.28891088277939,1.566516801222142,-1.6810511060002447,4.609753698356442,2.497505377115947,-0.23788195639434084,0.18240525345366684,-1.6096871984078132,1.580173876272447,-1.4420339896655228,-6.398458296208984,-2.241414732061164,0.1870143880125158,0.3820187264314816,-1.254240645124423,1.2094532038799406,1.376562203237588,1.507609948387635,-1.9145641265588194,0.6294380501829704,5.011415951896116,3.2784516147836364,-0.04867023249917403,2.370863746587865,5.139005478758726,2.5482431604073676,1.2436927407149672,-3.6400217743883063,-3.3758897783592827,3.771802095072195,1.2302850107669703,-4.182103152615606,1.4061840428104095,3.20987908323159,-2.971078521942735,2.055984353822196,5.3378162908510935,-2.7308486312358426,-1.6995077979821602,-1.2973360286537647,1.8373912913804227,2.908845548539467,0.35764296480952396,1.037425642886193,-0.423833622180691,0.9454186095449899,-2.655469096774548,-1.0539966729001753,-1.26704663542346,1.679879527023859,0.48824349087911,-2.37298381549857,0.2935344832473323,-2.1406778747533504
/home/dengzy/AEROPlan_Dataset/DJI_0455_EER/fresh_grass_128x128_2.jpg,-0.8878378613756539,1.4348051161694932,1.4059146833230929,1.8476085573255994,3.343796848100375,-0.8613421514616333,0.2428385486105739,0.9185729976295958,1.6737554326133162,-3.4999929888627728,1.626448704385026,0.736832739133514,0.4812235779810677,2.1092705262869957,2.162725949074373,-1.291120137356607,-2.3749603808390805,-3.81910497042641,-1.9240561690211362,-0.8217032443345946,-0.12181003864361703,-2.055975006499859,0.6468647980049036,-1.9044970460785702,2.6244240399343908,-1.011146551811336,0.8762826695996402,0.38256019714059775,-2.820518470589227,1.1211059097234675,2.6045514516606696,2.1211388595414395,2.803099748766982,-1.725600058383563,0.9319463983596503,-0.14568842594898646,3.4488683732755803,-4.498908218887664,1.367747203124933,-7.267370503882331,1.3933510784388334,2.7544595050564427,-0.5102993323576377,2.4428435232107666,-0.7898107595269732,-0.3000671973095849,4.389268065504934,1.5659816127821615,0.42602741026579666,0.41292383867177096,0.953472851687122,2.8274812862014387,1.5033410405710828,-0.4623979527749043,-0.46520907413442447,1.4075741461393345,-0.09313384893328779,-2.9975829892061325,0.9149254519011857,1.2638024544473456,3.4540212635337744,-0.0461918807657448,0.7557932592566863,-2.338008734826427,2.532435699347038,-3.341203444221306,1.5757532210883072,1.264899755565934,-1.871081816868297,-0.5449281896673994,0.061321074198608806,0.15496295801020316,0.17829760685548485,-1.1131014534756245,-2.6923629029536094,1.2885772729306315,-2.1380374122900188,2.8791189017072005,1.1422814329433735,1.7741267999785328,-0.5544381212790268,-0.6381533113918799,2.346365500505423,-0.9785786328749759,-4.209429762844475,-2.0313439464854612,0.2710953963349827,-0.272323724531967,-1.2162690440405437,0.18031181488468132,1.4795776719981928,0.4476374271375236,-1.1289604733819585,0.2213380691759983,4.810427783190075,2.57378822362048,-1.4304862237393732,1.5988904336551164,3.906344709147411,2.4277045049758605,0.8993449539040712,-2.687870090974036,-2.975941449573843,1.8852547146309153,0.47780036834157863,-4.316935960431019,1.7947835956251528,2.1595426782206504,-1.663446977392565,2.6929763655398915,3.0954901420234497,-2.053342038964723,-0.8502868220803492,0.3651138344004132,2.0556705246056097,3.2511971762715937,0.14161865966689194,0.5021264226099884,-0.951889728622843,0.3205967285749959,-0.9201692052592045,-1.336088358439158,-0.48834848057090746,1.7770492485110787,-3.4094369100112685,-3.1347993243383283,-0.9209072252879945,-2.310281647061445
/home/dengzy/AEROPlan_Dataset/DJI_0455_EER/fresh_grass_128x128_3.jpg,-3.1911716317603234,1.9860193425715102,1.4457180014073443,1.8301983269091333,2.446594532774939,0.3985202474347659,3.033222802092689,3.3680163632550473,3.034022847956016,-0.23902460753391885,2.950115357800608,2.003171510999228,2.17451792534514,0.9379918822462987,7.309480140103392,-0.20384282041837815,-1.5875515360451458,-5.068735318299913,-0.6810451397985006,-1.7356191975159934,1.3764226095912875,-1.2787390696882739,0.5571963387148144,0.6622734008834701,0.6387387428142554,2.1288429380243903,1.0976656199737551,1.1247840327720584,-2.585158934312806,2.454998920716948,6.1556347982065525,-1.363235763299991,3.4563755650125487,-2.363176439865435,2.0507588197608033,0.8679226138097386,4.134750359291532,-6.6752269820896855,1.3761508480163966,-5.855651222187323,2.816639961899833,3.2743228411523164,2.090448384761501,2.4420093803363745,1.5182408985976643,-0.8116912359832529,4.620767945939295,1.8901414986809062,2.010871185919976,3.0069530690717725,2.222555436105572,0.3013274230910538,-1.2325876655893069,-1.1371013495058335,-1.2981540584927398,3.4614485928342367,-2.5050069839465836,-3.0928327511838827,0.6101052178647544,1.7934335698105606,-0.6758803517327674,0.5972288403295339,2.7963004020015054,-2.9060620499269403,1.9092586753220442,-4.038371069865456,2.285672658989885,2.17180677759493,-2.076857713773044,1.0457049936610932,0.6040838281139627,-0.8163785497478706,0.33144288103616903,-1.9762086260699607,-2.134817818286096,3.5063021320519274,-2.3319359259544195,5.087676047749567,0.9426873698540946,-0.2146224275968728,1.1270671602728153,-1.5294395305474071,0.7985172873576791,-1.9071243749573767,-6.554314635859024,-3.2897705726507467,-0.07408963729006021,-0.037391641682945044,-2.5600233178360248,1.0406656049285576,1.4827670069725245,1.5382824061710119,-1.9076532140185853,1.9663164527130088,4.926907103669713,3.667978391103901,0.5218653978883693,3.0045175480180957,5.449105086289439,2.064592510561806,1.6028252024196958,-4.074333177667279,-3.1169981817455126,3.0989808939458667,1.368549915059385,-2.872071479377019,1.808756540121123,4.952458078018877,-1.829978796628851,1.667612013310291,5.860333242511768,-3.105991404379692,-1.8651325019807612,-1.2110120262467223,1.8113421013188713,2.779836560624386,0.7084123560685858,1.4425938804669927,0.3385885508506594,0.23201088535692063,-3.4960268145067666,-1.2002523931496278,-1.7401676585351606,1.701942545310341,0.9249624285453031,-1.5045277441255622,0.3178611704078671,-1.74742721511471
/home/dengzy/AEROPlan_Dataset/DJI_0455_EER/fresh_grass_128x128_4.jpg,-2.2143369339611767,1.5350634837524997,1.3307614551726714,2.08314222265395,3.194997628919647,-0.15594952308871476,1.2708288123844071,2.2559650323887785,2.270897153644605,-2.36738266986699,2.4878044507132455,1.6230041515214986,0.9545931892730405,2.0592768018115235,4.251956603537144,-0.9975857935428338,-2.4336021426519197,-3.8434697401957556,-0.8970178644535679,-1.2985085700390548,0.24995861024544402,-2.3789703392461554,0.710372306765027,-0.48968235249479336,1.750085746119916,0.03175629091471993,0.5072110430505654,0.9774483245594119,-3.015047000828559,1.644526418341681,3.6320458633415162,1.0174536548848405,2.913330523612811,-1.9449947830049368,1.2344876449475417,0.0490833281538377,4.0200983242313235,-5.493621069524784,1.5056943428731848,-6.568274427554658,2.232245878683251,2.8844178979832913,0.5876443095907957,2.7343352455985768,-0.35229967316671845,-0.7654171331606452,4.3778041990931715,1.5763446004428796,0.5494018917989701,1.39671986977111,1.558313736611116,1.880069682194507,0.5275180159938775,-0.7032993925619629,-0.817924727046749,1.8143342588903066,-1.027803478965303,-3.6154972460283203,1.0342825219139107,1.6887169564120303,2.1030334901448375,0.6831889472275916,1.484500911312901,-2.1910799762818454,1.6712596207056116,-3.9781556807672773,2.181673028484523,2.1927515774754296,-2.4052651106729055,0.27308763613138165,-0.13702173420096683,0.2322253554130549,0.15146825555712543,-0.97652757935974,-2.3951306090983535,2.7290571596274913,-2.694050337630149,4.156937520835274,1.5274895163786986,0.5263719303889436,-0.6925336602976176,-1.1980616073375137,1.8331818462637177,-1.3658674478332098,-5.141550896377382,-2.745260712941549,-0.1359537609492179,0.09431160865862981,-1.1831750223927398,0.15603316428064223,1.2691244994508315,0.9578250695506094,-1.2844097134704369,0.9345898869898808,5.076279956557163,3.049993497196488,-0.8639052394309731,2.5777762824505626,5.085475452417408,2.360197746877302,0.6740998233611657,-3.2921799405322494,-3.5658793369949757,2.3290874534601245,1.2825224449830999,-3.6149304985267308,1.6771757342487432,3.200753067878354,-2.0329331788858807,2.68416385948833,4.227922664178349,-2.56773928355421,-1.4486381561168165,-0.21396304508040576,1.8367387288227317,3.350395604977271,0.048127113261044324,0.8119837389596027,-0.7779687955929016,0.6576575919776004,-1.7219698436495992,-1.3985362821651421,-0.721530887197496,1.5622695193411522,-1.7730937056098786,-2.2325212913435726,-0.689362863905973,-1.6914704698297154
/home/dengzy/AEROPlan_Dataset/DJI_0455_EER/fresh_grass_128x128_5.jpg,-2.6560046518243885,1.9376078649897326,1.2767560865705854,1.4345048167389973,2.557843790090456,0.07448790735063018,2.091607809591349,2.487664415181171,2.9022795979455487,-2.0283669207161474,2.8789454485710038,1.401729094337807,0.6396184519863378,1.475600368296694,4.92528765997022,-0.4746788036034471,-1.7383310455212324,-4.301977405431502,-0.6087404231871048,-0.6768307425844041,0.5711024639294507,-2.3138735353766124,0.26063138923238094,-0.03157475287202297,1.4620536737974301,0.8751411937747381,1.3599014965570204,0.7465990923059518,-3.354825385681111,1.966436009844271,4.324690414319456,1.0805038752546274,2.958731727738961,-2.235513748470158,1.7032510561840593,0.3292805392999142,4.5026806937568695,-5.7699558111894325,1.5608594401322193,-6.630293522779385,2.8145828721842765,3.1868345336473562,0.642667535524074,3.2573719789138496,0.04935670958981433,-0.6196178261825385,4.497816052095928,2.175393776422255,0.9322986416498639,1.8994996749093365,1.9784249733595363,1.266506136448831,0.3351100318892716,-0.8623550669247875,-0.6025764960332933,1.6799897343025136,-1.9510368246622865,-3.3725564369523524,0.6226922624735989,1.5238722904362874,0.9983469318858113,0.6235168109137206,1.9333413580176515,-2.317002766708243,1.5760828668155422,-4.171404960582205,2.595709139367846,2.235138246934456,-1.9925263348532094,0.2712356445089248,0.23816607868196155,0.37572052318607396,0.268615159557245,-1.1339326915138523,-2.6631765272779995,3.664207585293215,-2.505707147542999,4.664820007869441,1.17782867847439,0.2945698764763439,-0.3254844449371181,-1.1285515698752544,1.6243404356351738,-1.8142715856774316,-5.410897860437736,-3.0068052627846513,-0.12767003070354105,0.01854950664857282,-1.2168117611678142,0.6494433614257934,1.264612439561155,1.1983304968290176,-1.342743904422399,1.1746643599421138,5.130472425947005,3.7000328077783324,-0.3768084661842436,2.623176930753255,4.84898654453653,2.506020366168286,0.4964422997645084,-3.8075247841009725,-3.825266279836575,1.82064830994434,1.078366704100395,-2.952904914676979,2.001454874227424,3.7589583908847337,-2.041062822445033,2.7585839524467235,4.844641998124687,-2.8523003952496007,-1.1159527968866583,-0.29876559035324357,1.7640847704909735,2.8554638055414445,0.7387911589065205,1.1106924088716768,-0.44016017437751753,0.5331312756227911,-2.002172203423893,-1.4279302940382599,-0.9106255600918356,1.4344927010167843,-1.4300447614520528,-1.9273998468467142,-0.9269252291951557,-1.3464634453686013
/home/dengzy/AEROPlan_Dataset/DJI_0455_EER/fresh_grass_128x128_6.jpg,-4.463663575785914,2.5979261136110994,0.7162408177503841,2.02437530676585,1.216022909908236,-0.24469109782360454,3.4868712554048202,3.347811627703991,3.694147109983575,-0.8152739213010476,3.925160784753417,3.0953201472209435,2.0590283298525267,1.159870615326546,7.54735004075838,1.2211800709076286,-0.8649501489868591,-5.371144858439985,-0.08736930163678458,-0.52685402721492,1.6593172632195372,-2.134185382473814,-0.25366060625469616,0.5370797035634565,1.0637070852068078,2.1474515999491945,2.0746038219422713,0.3193548749961001,-3.898142902572373,2.776499347998747,5.735423990325948,-1.314149835312774,3.2155397203209133,-2.3689429084633558,0.8459165491342955,1.4689623176497224,4.142612939247612,-7.055303806818531,0.6884015069930255,-6.088876395242016,2.2890256043688306,3.6421025213668776,2.063397761852367,2.458910902076912,2.684373495713637,-1.5277746277821114,4.7669159211126075,3.4516047035139543,1.6789798873014505,2.685719695592009,1.9792798993235898,0.45641188907052255,-1.4591142816156133,-1.7289004724752484,-1.042437101932284,2.7532899200234184,-3.1017992713643245,-3.4080448882285324,-0.16175052333736734,1.6420862498381328,-2.079278873714356,0.8759918557009616,2.9918407317244986,-2.934624260507864,1.6369391788285284,-3.0795041627919453,2.3896763970528934,2.8910142762803206,-1.8189076077494086,0.12993164816767272,0.6970621942071069,-0.25827622480073015,-0.544584857760561,-1.3250637092197552,-2.4688400545768197,5.191546641966741,-2.678014361974868,4.951616550229153,-0.4588948807151832,0.05139183212313777,0.8099877757621157,-1.5448026805420727,1.2868342278236065,-1.4810231530131894,-6.166966814749916,-4.078967478355792,-0.010002720473468577,-0.4389544477460305,-3.085077742507072,0.8339321136357232,0.4991758916247145,1.2181914904074493,-1.7838192250637317,1.9839656935986518,5.592776562394812,3.2272108754820303,0.4883225964951051,3.9261182812554667,5.7160144506625015,1.7536205521320327,1.3989779069110042,-4.613987648917417,-3.229457777880402,2.6948945502964863,1.012044897879401,-2.11482831158646,1.8182011742787494,5.046597665883942,-0.9952473609983823,1.2466127038460613,5.745149406866675,-3.6990025891776193,-1.6198187300654496,-1.719998618289909,2.1464933160558135,2.9375724715782963,0.1788930972351497,1.8489355550311213,0.7730843577588893,0.5915311971403403,-4.394331644613841,-1.0961342864496704,-1.5278448170231067,1.2898062570157394,-0.46188796344484767,-1.9743685413799177,-0.31202030690614224,-1.2959623897723618
/home/dengzy/AEROPlan_Dataset/DJI_0455_EER/fresh_grass_128x128_7.jpg,-2.579911778670363,1.6549534214304156,1.503283948613703,4.156221241346062,0.8648284031877829,1.2299160575003623,2.9274464517263925,4.401650048769958,3.989171989545907,0.7795509479744257,5.452551751085022,3.1210949288821026,3.885677274581475,1.3021150164199895,9.102450465219663,-1.8681256139726425,-1.240627124224086,-6.199073243253869,1.360839274151674,-1.5983954451897828,1.1175841782700306,-1.0594523571167782,1.4327798451741143,1.9919642314679742,1.1680494976599716,0.9395903127503191,1.7913908687960602,1.755739451677816,-2.6070729278997526,3.196621293609664,5.831484276281356,-3.424453096123693,5.351428610042752,-0.6372479614674222,-0.17889941014422456,1.7896770571713028,3.657965237160724,-8.508299478842119,1.0292985921773379,-4.738848997586181,2.369932965474812,4.294112054987906,2.878463080364861,0.5504958729551046,4.067200294063004,-2.658474946107959,3.658891991909319,1.8906116287925514,2.4578259026051628,3.3790706842684157,0.6161062757589945,-1.0052838266164346,-1.496300006213516,-1.4498498754719376,0.11293614720726859,3.589892919479368,-3.4051337688671692,-1.8048485592895749,-0.07229284174759623,-0.23288478493092798,-2.041521219094583,2.208395634814417,3.9520331079507423,-3.059814448370358,1.5964150314252619,-3.2477505901775627,2.775539682242385,3.3876844531566355,-2.7687213071327674,0.6857765510363969,-0.08871988318057061,-1.2923391462372227,0.11832972001079138,-2.3133662127096914,-2.470776515449866,3.6831462098905234,-3.3616066406957423,6.327788092489302,0.0047787434229075165,0.04679258784841582,3.501675109189102,-2.526725741806872,0.830688286785336,-0.32810056862782033,-8.046033502111943,-4.564518205910929,-0.5617275898866831,0.18595602037077713,-3.872357518405196,1.6728832551342943,1.1656373752165474,2.082077082409277,-3.2448126186204336,3.5101371931380156,5.203201564762962,3.2725178735906164,0.8930956887070067,4.730615120484244,7.462859099656727,1.5127482518288269,1.7501157215948866,-4.440129468240825,-2.7066607878514937,5.146992329357049,1.7921801832422388,-2.9926634085661,2.060711411710098,6.335232478532362,-2.975984432680318,0.7681850273610064,6.8908980441816565,-4.6017028925989765,-3.507120890741274,-2.0538295466568868,1.1425752365936985,3.0854313618197087,1.603708459581308,0.40043122445826673,1.0247467958399858,-0.44160119756570826,-4.302090928425514,-2.1253107907491917,-2.444566584071069,1.126034193157826,3.4812521161319543,-0.48096349070353933,0.888086064996348,-1.4222792265915074
/home/dengzy/AEROPlan_Dataset/DJI_0455_EER/fresh_grass_128x128_8.jpg,-2.581528630963583,1.2810654274113433,1.715695733304091,3.410395376560216,1.3350866971093975,1.1718885937681163,3.1578473259938797,4.3549197104101,3.9471351995354356,0.685929013300957,4.828279450806649,2.899947625797835,4.015857142048462,1.091861675417273,8.910827872806077,-2.1777164908344036,-1.7093761258405078,-5.261071022695914,0.6056325296521907,-2.243798356195224,0.36943196239839626,-0.6174593559831671,1.6217827794751631,1.7846996216585809,1.4670542739371348,0.5709415079864945,1.316155685187771,2.3195632536538704,-2.5014199512340527,2.2842541825644,6.461741101800565,-3.274403739562448,5.2747504011533675,-0.6819328439240544,0.5317125222282013,1.0037821897591959,3.635161954109779,-7.869818085020443,1.0838343086461466,-5.028756563721961,2.99203027991739,4.223763536103381,2.900175852640134,0.8911728049823731,3.4518938693774777,-2.243343318901773,3.929546123243651,1.7051958172489783,1.928163586309262,3.393967897838698,0.5351148424748698,-0.3642996497826025,-1.8660413745942086,-0.7810482252338019,-0.39383659479794686,3.972962748680979,-3.081506518015916,-2.0108823450525755,0.12745900594140766,0.47538434806439334,-1.436403285813998,2.1884011973701063,3.7066662549271343,-3.004257903392459,1.7257162404242803,-3.457470388420102,2.0988339256706054,3.010825094643337,-2.8466598562686736,1.467963889679522,0.16768473622443797,-1.4367258757490293,0.9237230453066105,-2.7270673619569665,-2.2946601014947112,3.1029082642366417,-2.8992214463753423,5.439012419239658,0.7262531007508807,-0.12254329277488944,2.910438944764783,-2.5772038158489643,0.8262273457456581,-0.2226256290590686,-7.835747617719264,-4.884786117527188,-1.0185438878554731,-0.1289402795426185,-3.381925615280263,1.5437241313070784,1.506937183155968,2.204005629412911,-3.4420195335106833,3.1712985784199534,4.932138612666224,3.0071164970284077,1.3466698603885416,4.222049431273062,7.335569625013825,1.3972545069597966,2.0409157419526127,-4.892976713060852,-3.096366030831301,4.896497712737613,1.8286561437264912,-3.3870414128253863,1.9488572976741068,5.937892915987435,-2.8851464423670894,0.9188994522583738,6.553125930677119,-4.0514963901448455,-3.617564184678355,-1.9232590157647027,1.1758501516151028,3.415293387803551,0.8619422299624173,0.7667239513984104,1.2153168893289208,-0.38321563896388466,-4.080631463714286,-1.7783115172609538,-2.557956003461535,1.212579751235004,3.4802184249871857,-0.46461554995132426,0.9762246133297046,-1.4746691500343185
/home/dengzy/AEROPlan_Dataset/DJI_0455_EER/fresh_grass_128x128_9.jpg,-3.0781764142428982,2.0630099331402363,0.9926756979580489,3.2792742277040796,0.652486560373447,0.9582925612806479,3.4783428025810634,3.825410616545805,4.307145035953378,0.8938185879145341,5.279016592499766,3.047252094284709,3.970599684268558,1.0434001309033263,9.251265443782149,-1.1562189276306605,-0.8169300773294956,-5.4665057717848295,0.8759952098362713,-1.233200109794462,1.3030650630020777,-0.9822585578711568,1.3703825629855755,1.6469530412884565,1.1191124536071277,1.3679111048204478,1.8095136033951404,1.7476919265986932,-2.4105887442749183,3.110993293397342,6.437617759610113,-3.5439095970052037,5.062015720662426,-1.1183113237458808,0.4340681088930808,1.7281907723719379,3.340296303589882,-8.73015229876539,0.5891172273020477,-4.808874344532557,2.860192462486759,4.701909968093972,2.34002781737873,1.1967272435765288,4.895917419510424,-2.2869158611075875,4.182469108909982,2.6883403486395143,2.3188999223509543,3.2543369300567897,1.6973137120220607,-0.6175367497440505,-2.067263395705136,-1.7979374589186083,-0.17159033438919213,3.8887134612955356,-3.2783524454221697,-1.8274543055476635,-0.7893507066717003,0.3935468936281433,-2.9497496562738013,1.9898697457747336,4.542146953909141,-3.290198932216807,1.6240974658432425,-2.8548000777173335,2.3849776533527622,3.096334250835359,-2.3920946366499733,0.5174765844765312,0.1532264399480172,-0.7634540788341141,0.05511608353461854,-2.3176582338242335,-2.396158197503728,4.312740414241223,-3.139734054549847,6.226259717983642,-0.2915344317045977,0.10596653125466374,2.9576907115978894,-2.7786476660975685,0.959820691636938,-1.0916545426290352,-7.895747854414313,-4.333868436310572,-0.14302300119952277,-0.10280467036325894,-4.381402036310496,1.4006793657171133,1.3601742285696123,2.3829180565394683,-3.646161007262664,3.503794083867722,5.123861649257444,3.246712024333349,1.1215599603047537,4.690158497412852,7.871192979344959,1.2927565920173856,1.6046851038242351,-4.767324694623565,-3.05269728551493,4.822900893984288,1.5024089891120533,-2.2665120155038907,2.103311813987636,6.67899789166311,-2.395333968057012,0.6193834313698185,7.445902431855634,-4.807467293753676,-3.5956636971656906,-2.044531602099708,1.330698475963773,3.1131100788712684,1.314154786795255,0.7973148137314289,1.2545996316452501,-0.38688675925161575,-4.795448376619214,-1.9937145468573285,-2.9897575991749994,0.8296550077419871,3.2817509558381075,-0.025551069833949152,0.6645326176439896,-1.4272499331290625
/home/dengzy/AEROPlan_Dataset/DJI_0455_EER/fresh_grass_128x128_10.jpg,-2.2820436599512486,2.431835982081671,0.3369636881433198,2.8395355003660296,1.424843396875096,0.23739893837099943,1.3179959611174694,2.5980966813231743,3.0046043362574055,-1.3226213158878957,2.8621835708791643,2.9861131102901886,2.1996508202620224,1.7757010252078806,5.892412776739751,0.08873490001796955,-1.1164962977848363,-3.9640984008649633,-0.5728537792302663,-1.9679849699599454,0.23334025801601105,-1.4158715471253056,0.521705136512447,-0.7360522359062489,0.6765581297258648,0.3090914361127671,1.1506377455794197,0.5835277700681211,-3.281823481948333,2.5759074967246414,4.00262488925826,-0.7918798445194106,3.4956354873562554,-1.3731300452680366,-0.05881446140145401,1.1215239098072083,2.696290162855776,-6.160135862732174,0.7060505313110219,-6.3121421051115005,0.625694815855612,2.0138787008363934,2.56297656092782,1.9957019793556026,2.0573867968552233,-1.4468198410100492,4.522633186482372,2.7864550225069826,1.525006242060168,1.1582234028001837,0.264659629868075,1.8801077108305144,-1.2910577211283303,-1.1450823865468602,-0.5193152329798614,2.4494840207684883,-1.8152684747793892,-3.2936166744773665,0.26397174233840726,1.5163773316323899,0.18555434718413333,1.6628912294884004,2.4335272029868795,-2.181848966942283,1.9564547597793864,-2.542657887215332,1.7564753997429203,1.044625975782266,-2.701942440912222,0.27553120076726667,0.7126861597554626,-1.0502819916383443,0.7438776924992848,-1.3981960232897082,-2.0800579266184895,3.31124812357087,-3.2701595404112664,3.722324783636966,-0.35083101666831584,0.8092970131298545,0.4453397580065223,-1.0701223030067848,1.335211362938302,-0.9013416073254665,-4.788832675097605,-3.4087040071315187,-0.8341194647176783,-0.2629212528367508,-3.4661281555519414,-0.2074333109717275,0.8558589101513462,0.9283266620857106,-1.8191008644059377,1.5799662749830437,5.6204917643919305,2.672506253373837,-0.3921056971093769,3.5508067622973214,5.670342959179793,2.055674787511946,1.644415414432805,-3.728290628495261,-2.6333087487716083,2.852937799851302,-0.20069819476987655,-3.2692578104694845,2.074017772274161,4.33474484259883,-0.5397201110428318,2.064529135370216,3.3206464034614775,-3.0111552183385015,-1.4450802948024388,-0.5104140152716404,3.0547003602709206,3.8053204621090813,-2.2356560882139918,0.8184648360643731,0.28525331485844313,-0.41319937580002647,-3.22446186480429,-0.6627321909603555,-1.456332162099877,1.094526334184842,-1.0470087432760828,-1.214365757216744,-0.9857810168206269,-1.5196714583915043
/home/dengzy/AEROPlan_Dataset/DJI_0455_EER/fresh_grass_128x128_11.jpg,-1.5537499554545307,2.0014657333385624,-0.11009348856072702,2.8836509225349958,1.4354848901178328,-0.07013822942356714,0.46098112813894226,2.59559511291008,2.5157472831364776,-1.8280867955843842,2.9269993085656094,3.153116090419389,2.146392776890911,2.215109977145423,5.232787367060321,0.13252838482366341,-0.9821622136073799,-3.095427547498493,-0.6205758944111404,-1.8779894984912164,-0.2360045948681498,-1.6070781523333217,0.6907769664824805,-1.0488071671027694,0.344087158592454,-0.44383351937623,0.5724971257921463,0.5272649730106729,-3.7290425739975035,2.3686279086606,3.105832230014623,-0.41630631735369716,2.865896721010717,-1.0962344003421332,-0.8701944668170724,1.4803936088463316,1.88368229006266,-5.150495736005469,1.3052184828039386,-5.7753889933908065,0.4982417124493305,1.2218758866133097,2.782641230683617,1.6221202226070983,1.8178085464847087,-1.337416678528783,4.14883152423582,2.716254070558641,1.4290305545468531,0.30989907213117546,-0.40438190612348324,1.923716415485698,-1.3037609235958416,-1.0864957783025198,-0.5673995240866938,2.3273283397460647,-1.5172656978204428,-3.0317085131880113,0.1780770606884531,1.6923524193192516,0.8448047727867003,1.727378520616405,2.0260306031038366,-1.7439325673677188,2.1746441747320837,-2.2033072973496326,1.3419146539909756,0.8956357276266134,-2.6721035038860155,0.08620457864298103,0.865581443487678,-0.9402903097436873,0.9212631235434252,-1.1964486535285905,-1.9261258828097525,3.040291009017311,-2.8726978031875907,3.7884229932442657,-0.26654809152440356,0.7837720751792979,0.284908351041525,-0.8168317356253562,1.1704712515454752,-0.6148085949888988,-3.9792164196677455,-2.867130584912184,-1.474506918781552,-0.13960094432909992,-3.1507186149003594,-0.5332428997055513,0.5600943607381528,0.7495933583723235,-1.583833875943066,1.3390639270604985,5.536133902358328,2.822974187997211,-0.5784260527152028,3.52424971665503,5.197664695323907,2.2096894039201525,1.6494918344257399,-3.2835771699179555,-2.155105565246925,2.9014897252755394,-0.7528860869192565,-3.2041241192805145,2.2399633247208053,3.8998230713860322,-0.027717231403951593,2.1269918737800144,2.6850585297407377,-2.58609394476954,-1.1636701869285184,-0.13888682612660608,3.1591721899367795,3.156897172662073,-2.8643522806042974,0.21155071373856127,0.054425205872920254,-0.1066388624400351,-2.8082993626099464,-0.1470919397175925,-1.2409656922552084,0.5219867436404727,-1.6780584513700507,-1.2193334721306148,-1.3597471155197205,-1.4530751477048205
/home/dengzy/AEROPlan_Dataset/DJI_0455_EER/fresh_grass_128x128_12.jpg,-3.0265307553303025,2.009423602531107,1.8363022311079118,2.650293185320413,1.8543235635263038,0.6174500314424456,2.6905305200436733,3.2214948231753495,3.9573055911557766,-0.3001234066420492,3.7508933568325538,2.3116496673544162,2.679270487780765,1.2717764605634403,7.4524290921663745,-0.596682158924928,-1.8076236494660365,-5.354107117504099,0.02777357025618372,-1.0748380055775733,0.7449339154013217,-1.4152774939967157,0.43488522388217693,0.7960995733659062,1.2011688172680974,1.63652663520827,1.659076203643122,1.230988996202706,-3.2676151997069973,2.888589162360044,5.937961408749042,-1.2273792788005105,4.4608308020516505,-1.7814539494780504,1.053711127459384,1.0920752108737222,4.4623845497317385,-6.822264060315265,0.6790284721326267,-5.906797074517656,2.53234728793439,4.0332249040581445,1.8585608205819018,2.048430022518507,2.2726194852615387,-1.3341816300668552,4.01600377746178,2.451257323291455,2.2768837923971037,3.3022037493433367,1.459789073661418,0.1105632254061503,-1.0019225061688597,-1.3831920735392582,-0.3404433117073839,3.1000966715051725,-2.8639569137695373,-2.484443204706918,0.10630757434618694,0.9366405238009472,-0.6879830518516086,1.5018911863549755,3.364334119673251,-3.041171729634978,1.8348168865027081,-3.9788411117337397,2.6196412542071092,2.3539537664730554,-2.233214583180601,0.542064027862058,0.46947048257498014,-0.9138036132251697,0.3481205602485681,-1.806463335923843,-2.506689752032529,4.169864043391414,-2.9230898526681828,5.262648361596935,0.5359795240498946,-0.028617046668444623,1.5494803024057893,-1.7551244258046492,1.000061040599775,-1.1387203513016086,-6.962319966251269,-3.886590286217726,-0.5083994153879592,0.02072821884461794,-2.587848226181169,1.3535923614418943,1.3856843366539286,1.6230730535885372,-2.710110217375367,2.351280621227116,5.114618886953345,3.5856695208598843,0.4310118313766453,3.7343738371541173,6.458786291345495,1.8192456139433328,1.5596656312124426,-4.130147580933397,-3.100618082456848,3.340988523491093,1.42103124219151,-2.8883416076513746,2.286878491112289,5.019857597275122,-2.1496531762070044,1.360774605372043,6.020456797406024,-3.6898691560647072,-2.4060876846814847,-1.285884683520941,1.6528292769535864,3.1013050021128805,1.2371116363211292,1.2028758261356507,0.32046811859825014,0.11136937077479687,-3.575000241664841,-1.8672845845485095,-2.0445644077215848,1.1502947849363465,1.3105788978958368,-0.9937991651079617,0.07664493774473001,-1.5174165769885348
/home/dengzy/AEROPlan_Dataset/DJI_0455_EER/fresh_grass_128x128_13.jpg,-3.6031300548030236,2.0482286370408676,1.1132226203069966,2.9318221347774482,1.9513962178060673,0.6856242437917722,2.661075576297607,3.4652527154685657,3.3706427333052957,-0.49857764120855685,3.524318464472038,2.7975487548864493,2.6167112046636936,1.389592828102601,7.611028257353084,0.04479833911642078,-1.8915236313014152,-5.171506301031416,0.0931598998852597,-1.6262164802829555,1.2137161911696257,-1.9049912199158368,0.41313280092632415,0.6505659728033306,0.6354329343112324,1.5115701250300466,1.1939432318508096,0.9253261485524718,-3.217885435338553,3.0276737139709327,5.412512708223476,-1.6763279357772845,3.6598637716086344,-1.9746300931988074,0.9679824228144478,1.4364974345224906,3.9040962042066014,-7.299374396483868,0.8413163721885321,-6.113216472297488,1.7569637389723436,3.124462402124249,2.331073047212561,1.75463135246761,2.442620608609584,-1.353673355087118,5.06712172118767,2.508587431994536,1.8759834273120213,2.6577040174038733,1.1340949656517307,0.27686298308986207,-1.178290296260838,-1.4833942660828157,-0.814521165742837,3.1151394821632272,-2.549834006426018,-3.252440802759017,0.4858459519970449,1.072088431217359,-0.9225641701204494,1.0802116628702343,2.7204716905828503,-2.587544934622737,1.5950124265757035,-3.651331462870574,2.4046200943964218,2.190658127371291,-2.476535241467618,0.5732783222791618,0.7699652262973448,-0.8012407492378312,0.044134953452313795,-1.8206549674918489,-2.36366333858479,3.644236386351121,-3.3252887307199375,4.872648547132475,-0.17356802658691264,0.28204326825754655,1.1592265521420968,-2.0490227946344453,0.9650737895546839,-1.1801625612216498,-6.543389191478587,-3.756494979717787,-0.5128169113051626,0.12479768046762674,-3.0704301952657778,0.7814394722257517,0.7383940039262907,1.3043986278748299,-1.6764316885003712,1.81711728055034,5.2356516852299855,2.888227577341648,0.29870655804674084,3.862784211566601,6.008491077456811,2.082559998320442,1.680069296399545,-4.025350541542935,-2.852187578017603,3.642470613436276,1.038681033971032,-3.311102420192139,2.1336281285810506,5.146978753037933,-1.6438758601169152,1.5543682559232277,5.1503720330080025,-3.5509803925740533,-1.823540848784403,-1.369186153327964,2.0281970412845824,3.5632911392328275,0.24439914902244536,1.1504834706265594,0.5758686688144793,-0.05545095105940982,-3.754866719351908,-1.5787185555547774,-1.7010791561485021,1.270385493080571,0.47623768461192995,-1.4355925411056927,0.3693394672641086,-1.6950564693189012
/home/dengzy/AEROPlan_Dataset/DJI_0455_EER/fresh_grass_128x128_14.jpg,-0.9417462643025705,1.7103122049087414,0.7404592057632238,2.600956782462524,2.4356184832004777,-0.9634182104908373,0.1294778618105923,1.3691375059945894,1.141829556595951,-2.4597141792832042,1.9751279805310464,1.9924050471388888,1.1306895572665554,2.193861195522669,3.0878595988086515,-0.8511075708518947,-2.710575677840061,-2.535690129149827,-1.669935554192978,-1.7034086892268827,-0.40948381266903244,-0.917642614694531,0.6857236239228841,-2.306758773714056,1.2505442090951722,-1.2353215878443247,0.2063924570303896,-0.06404728929924043,-3.7741199233297116,1.2603146675845929,1.9027077305753557,0.8174986400194058,1.3132615216438934,-0.8790034193671108,-0.24876300152166428,0.3508193103851796,2.280733673136169,-4.483363087151456,0.7399590606184024,-6.412439332665116,-0.5367446949819529,1.4838482830200845,1.335877569068682,1.165222693783489,0.779160431819425,-1.1677206722353544,3.9694436317122084,2.006700779817215,0.784185149287984,0.2570742407458708,-0.28083576804812027,2.9084929547801783,0.19831429960745398,-0.9159602903557765,-0.7924017799482835,2.8465567104751925,-0.9668231036375274,-3.6250550319542967,0.9905548550068289,1.3916386733429247,1.80500880778707,0.4666119270738654,0.8380314347987964,-1.5889644619940708,2.0533780926651293,-2.2207910332886636,1.2525814307136849,1.6215272777866137,-3.4358877935697207,-0.7848548620806366,1.4452552223989295,-0.5453349178009914,0.7160407007697712,-0.8320424306106989,-1.610043093760646,2.3607158947052613,-2.946620487476962,2.9649086240284985,1.1547004734205413,1.56860087326248,-0.263529327094426,-1.507510835184379,1.1693506445142723,-0.4550051843227451,-3.3049311134257424,-2.987435922722387,-0.7925213669911698,0.25700681439281686,-1.892878766718893,-0.2414530790923232,0.9708633589990446,0.6578902159852891,-0.412731782404186,1.5960562368927884,4.9036568097856525,2.3323832800097133,-0.5732807618758488,2.7819057295706413,4.283662575714938,1.959474706332151,1.8831501381818208,-2.209924587860743,-2.8742287710954217,3.203192851403186,-0.08726354819151858,-3.517590008916456,1.9552546863696487,2.2715159376737075,-0.3610746577495162,2.2971999540694243,1.9223846195695142,-1.5852807004994756,-1.9081587157078768,-0.1548441616059182,2.3728383029011537,4.185844955265263,-1.973201964435796,0.011228810237729786,-0.6890102462240776,0.3339891710647841,-1.9448543456227974,-0.43049218527612654,0.11598657048345351,0.7644331754482296,-2.436087991588118,-2.535531751037201,-1.027750271555762,-1.8785483892337613
/home/dengzy/AEROPlan_Dataset/DJI_0455_EER/fresh_grass_128x128_15.jpg,-1.2389357734798008,2.0070940463196316,0.34102718324433223,3.1625176424946995,2.7268009708775844,-0.6984838641526163,0.0868128282546893,2.344805400202195,1.4314475073575172,-1.7658535850848796,2.1560988745697554,2.5269499697003615,1.8952088407032395,2.0145746369367723,4.727134457412828,-0.6937948167150615,-2.125291407188757,-3.378789188477073,-1.279549270798357,-1.8354395680358024,0.40484242862090003,-1.9016217141317153,1.1988889607958708,-0.9002292593799279,0.8356354441396873,-0.48241457876147004,-0.005895117331315261,-0.031401276786898455,-3.162622400268103,1.8334272726187173,3.406864222083196,-0.37439539984000253,2.1921935935697507,-1.146318019515709,0.5599086829325214,0.7526053262098418,3.0912636090243337,-5.110858047244896,1.3571308308536765,-6.073051492990257,0.8518264864227122,1.3180348761754819,2.3109945141237183,1.1799398457226415,0.39311706013065806,-0.898576628748501,4.623741897236849,1.2079873103690635,1.1320686121069647,0.6233782767099797,-0.11978340173511622,1.7473589699839216,0.0038214884206997425,-0.9026967093070766,-0.27018526810885596,3.384923267772109,-1.029573076286076,-3.1778466153961236,1.4268227176730495,2.2226564876113533,1.5501914262610303,0.8905995784204002,1.2395387240132196,-1.6423580664919382,1.9843949371613658,-3.076600826918881,1.1988288860927303,1.5427201794505527,-3.3095489573154504,0.5154975369693603,1.347605465207517,-0.9163456179344852,0.3829514734926275,-1.9441947939591298,-2.445683684925775,2.159381424871756,-2.6360430319972368,3.5136893687893886,0.9168259924989404,0.7648065630698038,0.12969844907339695,-1.2266903752353813,0.7997884838034641,-0.8615694695359851,-4.958267405853105,-2.618281663188967,-0.9557916263440527,-0.2529066540244795,-2.058959167530301,-0.028492701036016376,1.105113966544319,0.6391512878190305,-1.1120738019778278,1.687386670456884,5.138812230383745,2.8028068261681724,-0.2336200822082251,3.127653753604412,4.704568617042267,2.220621507731573,1.885956876200206,-2.1195486613343006,-2.012605811171691,3.624850885610569,-0.2304534162689625,-4.165165594042731,2.318450909192833,3.6308406673163396,-1.3606886940397902,1.9565538846932617,2.498522026924963,-2.17897801704126,-1.4976266060424746,0.36455323132739476,2.5569437837359565,3.1929455971551475,-1.4954702287084907,0.28123964413186303,0.009504939621965188,0.28405174956318907,-2.306451537180865,-1.1146017199693519,-0.4242450136690671,0.9509956002283427,-1.2879697140192088,-2.752564453537489,-0.36567965033387145,-2.1007293765368487
/home/dengzy/AEROPlan_Dataset/DJI_0455_EER/fresh_grass_128x128_16.jpg,-0.024619796958377464,1.8355652876302542,1.1083130278268338,2.454009931277148,2.766966447452457,-1.0350367434896353,-1.0321357628773833,1.1307729510762545,1.201040906564317,-2.759491117885328,1.8098186949078356,1.5641074730132876,0.6656033192432852,1.9086345823332576,2.8346361736182795,-1.4608106204542415,-2.5631514304568745,-2.5836099450062195,-1.88617164181497,-1.7332959357200397,-0.3620528601425331,-1.6220518714528946,1.406810243438276,-1.838446373350865,1.3219276687694475,-0.5754331218205536,0.3082047835930198,-0.20782528892584376,-2.8086895571356925,1.2796615883383462,2.6948208485903304,0.5735313973130208,2.058477537058999,-1.1356500946766799,1.1629375765426437,-0.2396824509578308,2.894134842321448,-4.146033959959994,1.3690658017619841,-6.677628885053454,0.5570183713141343,1.394369451425907,1.3441169583822827,1.631242934194498,-0.6233943830409312,-0.2106822412785964,4.295877409450784,1.0331115743726997,1.2958491374738617,0.23546911819687644,-0.03809673286675218,2.3100844118842043,0.6093314848824942,-0.44130208309501534,0.3480019786646193,2.5757075915920025,-0.5632182024887351,-2.8607931207763837,1.6616968967254588,1.8612684797368366,2.9525830953975256,0.40012991952378274,0.8110456973731409,-1.4865296317859495,2.2182173524288786,-3.040732081042538,0.9894558630934147,0.9150436958470722,-2.9051289157200246,0.07605886721468462,1.6249777858217729,-0.4786475215344435,1.093348918403183,-2.0023697655703887,-2.775898717641412,1.1991890475348328,-2.477910342434204,2.4881017857814607,1.5313479736194535,1.302151335671033,-0.4490301306039134,-0.9994700001027285,0.6276387048666248,-0.6888663939351232,-4.230435176589835,-2.280568866052949,-0.2291931823319769,-0.07224346428005383,-1.4485123536992466,0.13469315335428328,1.5087509036789042,0.8361420092146812,-0.8518085623649085,1.3663430912977303,4.981738466874409,2.315397429573962,-0.5274764597377368,1.8218400738164249,4.278266235446731,2.4049311329302214,2.088307515621193,-1.9594228586005027,-2.422113871533896,3.168211672093079,-0.4286226349118124,-3.9220809410489914,2.0530680721960404,2.2754590750176993,-1.326435927156656,2.207269242440229,2.0585559129912694,-1.4764776052717088,-1.2050749397469247,0.4111825831840581,2.6668601081391703,3.5901513358779895,-1.0646943461587077,0.19983708491365826,-0.28537013941095496,0.39084083081453536,-1.4987745883798684,-1.2406596532609588,-0.3866663863827489,0.7407574493867417,-2.0431665742245166,-2.764484001139579,-0.6277252857558706,-2.249640032028706
/home/dengzy/AEROPlan_Dataset/DJI_0455_EER/fresh_grass_128x128_17.jpg,-3.9512604662327377,1.8445061141837429,-0.0660288782526181,3.0963329625190226,1.981857966546515,-0.17808478118251797,2.058823278320324,3.4312074478316767,2.5770478714746217,-0.9603603638393435,2.713171330890855,3.508168059240732,2.3625693999349093,1.4955601225557082,7.011482516425379,0.8399440797271878,-2.083704869160462,-4.464481236245307,-0.4150165081449126,-1.2704430942474532,1.088880364089125,-2.345152856198619,0.13746173836306858,-0.03181873137969638,0.9708232440907787,0.3606863412557172,1.054249988079064,0.2556250817406227,-4.092532224571988,2.212937371736148,4.559161046864327,-1.2636840584836921,2.6853620573412935,-1.5154314152502788,-0.09182455978123324,1.5503873577311347,3.379187425229145,-6.069788365419556,0.5294975560431336,-6.219962227689316,1.24982155445988,2.528363305960476,2.6657933921749057,0.9257189157290773,2.5027408057354172,-2.1057066620935316,5.065507930684267,2.5064763679356816,0.7985365195091332,1.9673202523308007,0.3770833162318944,1.409160138290783,-1.394550692408992,-1.0678590235138683,-1.1124476864815134,3.2041884105625855,-1.640427247401833,-3.7517653028511795,0.22359634288956523,2.3691957905491496,-0.8911597610889268,1.1167914841274924,1.7754576705427105,-2.5432703401234646,1.5768428502591216,-2.5739198588224594,1.4339312667747832,2.2848649969766526,-2.7310374543619713,0.6159769283169813,0.6077546691523937,-0.9693449119312746,-0.4216620120904896,-1.7770696036859797,-1.8653068517279068,3.7372083724101786,-3.4540504334363518,3.7558382453095995,-0.9227677650649732,0.5006429912358735,0.6279074145532084,-1.4911478925044452,1.5373999459269854,-0.6230366691073702,-5.7340438364187865,-3.6416776119748384,-0.9492378483460959,-0.49046851133705527,-3.032176402922276,0.10339359288484758,0.42300486799765113,0.7470779957793138,-1.4405277021337333,1.197523517554147,5.424619115344556,1.8490393289838274,-0.06031159315670067,4.244690460556312,5.327358655599399,1.4820213936601703,2.0387644722950355,-3.3966484880969374,-2.1752546370008092,3.442828973747962,0.18634687279385528,-3.5500662274798165,1.634360345437658,4.8885587121258265,-0.7898012318553793,1.131411821534241,3.570949504325347,-2.9454491987375997,-1.4519373144733563,-0.5934233847571596,2.8022700627725246,3.622396942694516,-1.762291961013942,0.7883748456341619,0.6944980686723077,0.5438762070344091,-3.789564027932358,-0.7699305737340982,-0.9910518320698654,1.8044559028518758,-1.169025706760854,-2.849601229415644,0.22629883911515866,-1.7479008658890727
/home/dengzy/AEROPlan_Dataset/DJI_0455_EER/fresh_grass_128x128_18.jpg,-2.819842787610493,2.0578588966259552,0.4178128018232162,3.898471121475154,1.7077841674810628,0.2938034925020821,1.752448080790974,4.007248922848854,2.805707576363571,-0.8919157104550492,4.026226401723485,3.585557487430554,2.912078299582811,1.959607421672192,7.0793162176614,-1.458827646787603,-1.782572118329813,-5.276829226299514,-0.06830482346596817,-1.9959240327409968,0.6670086250244036,-1.9605025976853248,1.2360053517702756,0.273361067918265,1.0145655599347156,0.10171242470186834,0.8204013988539266,1.039457579087761,-2.9123671539837988,3.1938530365651774,4.600625359725364,-2.399906362302595,4.886087810098519,-0.5237571610263153,-0.17410312159877575,1.9546705871179426,3.3074761380209337,-7.3964027936707435,1.4511020347442156,-5.968084471028094,1.5324308795679407,3.0730161967934615,2.5088637801544422,0.49097812532406415,2.694524523889798,-2.178905247197064,4.7874674043422685,1.9858903830091765,1.8839182521968592,1.6780629152701798,-0.23762705111585375,0.11479855192524338,-1.3505590595776025,-1.085582345283123,-0.3044602154792255,2.3397107894368334,-2.2815915700823446,-2.9385013194563823,0.47780871784596746,1.2090822990759214,-0.10376995944682696,1.854327948773226,2.3325283408302524,-2.907817655307577,1.8599529761885072,-2.3357894074076,1.8486303232783345,2.091725433132544,-3.1001114233403504,0.252312270814406,0.2458700796143504,-1.1013278035430283,0.4835671081734129,-2.1744140719146214,-2.3387495156717746,2.7221533375971974,-3.779471383819429,4.977807013358239,-0.4342928141304201,0.3728417308638707,1.007343307761102,-1.8221588436239518,0.9437839315714843,0.013953535328581498,-6.344351552800014,-4.172420961971225,-1.5520159636495618,-0.04544192431468239,-3.0723636930047107,0.5869754654531756,1.0919303123319521,1.6208855633260744,-2.3251582545049527,1.8245673512545113,5.497412302038141,2.0857411042872025,-0.05132732792293596,4.524359169001572,6.5290706546312505,1.9151700564400334,2.709841364262217,-3.6306836478652604,-2.2891855854931684,4.7744656159860295,0.47047362507851576,-3.7218952542084596,1.4425713175775,5.346475349850159,-1.8494024713517132,0.9869643728052682,4.407383154258142,-3.633339381907266,-2.0620966093084885,-1.0453319570560293,2.04139023349949,2.941217534685087,-0.6725448232452278,0.25542255465133695,0.6819735656041848,-0.17258019809105818,-4.329216409256752,-1.5896228340102243,-2.0404142322213272,0.8902979429452756,0.6197634558472009,-2.14900250312261,0.5253915018565977,-1.9577019764179073
/home/dengzy/AEROPlan_Dataset/DJI_0455_EER/fresh_grass_128x128_19.jpg,-1.3180659695128272,1.9193128812032856,0.723473432364575,2.5377518470512483,2.498233394556044,-0.532625311494203,0.3029422440834314,2.2509916937741052,1.8510359911104082,-2.545944054744942,2.666186028934053,1.7561541922084136,1.2685883344142541,2.0350933257334587,3.7730934848562336,-1.6294272984232099,-2.3621453951651916,-3.5296436125659874,-1.1460368378958035,-1.877598705313708,-0.09790193946049353,-1.9672423909357288,1.61999622046938,-0.6063615768056144,1.0266748571755409,-0.22222320745994853,0.583953093541314,0.6940599049935471,-2.51129246911524,1.8119648719358934,3.6618901222752207,0.27075046534817737,3.617290002616599,-0.9876364752827775,1.3684388678756851,0.28471255837843173,4.006530999514349,-5.978442774597788,1.5685413696102177,-6.677305122940197,1.8487697617196397,2.6968531794940303,0.9163795108488987,2.251035833969247,-0.2092446976863615,-0.4046191292643675,5.024022570883991,1.279711309030573,1.3201822534761187,0.8485417979245746,0.695798940669384,1.4548665921299393,-0.05611443527568656,-0.6539084472883046,-0.23630420957793832,1.9941015251568817,-0.9470218622077657,-3.233142180359022,1.0993285367409613,1.6343252697446993,2.4595454785122035,1.082337822479841,1.9457874624227927,-2.1516236520953878,1.9988839278591128,-3.3014662204714846,1.9065371454810833,1.707061751884416,-3.057174506700221,-0.162243293155718,0.4131334179056325,0.010035882831026955,0.3270228942264215,-1.6442755947606578,-2.6471114468891574,1.7940777245817134,-2.9141312220437454,3.9646799761692035,1.363920573290072,0.9734098703221749,-0.6185282543563255,-1.384677763486139,1.4354323776535103,-0.8357891738210241,-5.137979475024208,-3.005192510260172,-0.3988357124339634,0.1803307835477712,-1.2991336851209314,-0.1836576964060168,1.8453824197724331,1.4541184916138776,-1.5603963302437645,1.1722303884397607,5.399176913898492,2.754908995894815,-0.6446318811216849,2.8322541552832954,5.709202146799674,2.558722874978205,1.7168882846638887,-2.9731701481575414,-3.0434415467591016,3.509142953420819,0.1153922972582827,-3.629230346000059,1.8324156276010353,3.4317331184004685,-1.9444769813397458,2.5039441520985495,3.557976708013394,-2.4283166988497062,-1.5213712246303186,-0.2598493556984476,2.3088137740465373,3.197410057325586,-0.6064641768768075,0.32962418008450795,0.1151775265492434,0.6287484632095655,-2.164218462045243,-1.9521107931411907,-1.052868520282011,0.9214122708323522,-1.0511609066209864,-2.471249118752194,-0.2958107799671825,-1.8324979859790418
